{"learner":{"attributes":{"scikit_learn":"{\"_estimator_type\": \"classifier\"}"},"feature_names":["view","click","redeem","click_per_view","redeem_per_click","redeem_per_view","log_view","log_click","log_redeem","total_count","pop_percentile","unique_users","category","age_days","recency_hours","view_per_day","click_per_day","redeem_per_day","d_view","d_click","d_redeem"],"feature_types":["float","float","float","float","float","float","float","float","float","float","float","float","float","float","float","float","float","float","float","float","float"],"gradient_booster":{"model":{"gbtree_model_param":{"num_parallel_tree":"1","num_trees":"300"},"iteration_indptr":[0,1,2,3,4,5,6,7,8,9,10,11,12,13,14,15,16,17,18,19,20,21,22,23,24,25,26,27,28,29,30,31,32,33,34,35,36,37,38,39,40,41,42,43,44,45,46,47,48,49,50,51,52,53,54,55,56,57,58,59,60,61,62,63,64,65,66,67,68,69,70,71,72,73,74,75,76,77,78,79,80,81,82,83,84,85,86,87,88,89,90,91,92,93,94,95,96,97,98,99,100,101,102,103,104,105,106,107,108,109,110,111,112,113,114,115,116,117,118,119,120,121,122,123,124,125,126,127,128,129,130,131,132,133,134,135,136,137,138,139,140,141,142,143,144,145,146,147,148,149,150,151,152,153,154,155,156,157,158,159,160,161,162,163,164,165,166,167,168,169,170,171,172,173,174,175,176,177,178,179,180,181,182,183,184,185,186,187,188,189,190,191,192,193,194,195,196,197,198,199,200,201,202,203,204,205,206,207,208,209,210,211,212,213,214,215,216,217,218,219,220,221,222,223,224,225,226,227,228,229,230,231,232,233,234,235,236,237,238,239,240,241,242,243,244,245,246,247,248,249,250,251,252,253,254,255,256,257,258,259,260,261,262,263,264,265,266,267,268,269,270,271,272,273,274,275,276,277,278,279,280,281,282,283,284,285,286,287,288,289,290,291,292,293,294,295,296,297,298,299,300],"tree_info":[0,0,0,0,0,0,0,0,0,0,0,0,0,0,0,0,0,0,0,0,0,0,0,0,0,0,0,0,0,0,0,0,0,0,0,0,0,0,0,0,0,0,0,0,0,0,0,0,0,0,0,0,0,0,0,0,0,0,0,0,0,0,0,0,0,0,0,0,0,0,0,0,0,0,0,0,0,0,0,0,0,0,0,0,0,0,0,0,0,0,0,0,0,0,0,0,0,0,0,0,0,0,0,0,0,0,0,0,0,0,0,0,0,0,0,0,0,0,0,0,0,0,0,0,0,0,0,0,0,0,0,0,0,0,0,0,0,0,0,0,0,0,0,0,0,0,0,0,0,0,0,0,0,0,0,0,0,0,0,0,0,0,0,0,0,0,0,0,0,0,0,0,0,0,0,0,0,0,0,0,0,0,0,0,0,0,0,0,0,0,0,0,0,0,0,0,0,0,0,0,0,0,0,0,0,0,0,0,0,0,0,0,0,0,0,0,0,0,0,0,0,0,0,0,0,0,0,0,0,0,0,0,0,0,0,0,0,0,0,0,0,0,0,0,0,0,0,0,0,0,0,0,0,0,0,0,0,0,0,0,0,0,0,0,0,0,0,0,0,0,0,0,0,0,0,0,0,0,0,0,0,0,0,0,0,0,0,0,0,0,0,0,0,0,0,0,0,0,0,0],"trees":[{"base_weights":[-2.3626857E-2,-1.4987212E0,7.668066E-1,-1.9063207E0,1.4589856E0,1.3947673E0,-9.677419E-2,-9.863946E-2,-3.2633278E-1,1.7995445E-2,8.341014E-2,-2.5820565E-1,1.658311E0,-6.666667E-2,5.649547E-2,-8.974359E-2,1.2226721E0,1.2910513E0,9.479016E-2,1.8105265E-1,1.4995656E0,-8.0268455E-1,1.8187051E0,-5E-2,5.649547E-2,2.8535983E-2,8.385651E-2,-8.709677E-2,7.2200775E-2,3.4743205E-2,9.571599E-2],"categories":[],"categories_nodes":[],"categories_segments":[],"categories_sizes":[],"default_left":[0,0,0,0,0,0,0,0,0,0,0,0,0,0,0,0,0,0,0,0,0,0,0,0,0,0,0,0,0,0,0],"id":0,"left_children":[1,3,5,7,9,11,-1,-1,13,-1,-1,15,17,-1,-1,-1,19,21,-1,23,25,27,29,-1,-1,-1,-1,-1,-1,-1,-1],"loss_changes":[2.9038925E2,1.0753104E2,2.7790897E2,7.4215393E0,1.9497623E0,5.80101E1,0E0,0E0,7.8101873E0,0E0,0E0,4.5526035E1,7.5077515E0,0E0,0E0,0E0,2.6968002E0,5.444265E1,0E0,4.826497E0,3.6112404E-1,2.4350246E1,2.8187866E0,0E0,0E0,0E0,0E0,0E0,0E0,0E0,0E0],"parents":[2147483647,0,0,1,1,2,2,3,3,4,4,5,5,8,8,11,11,12,12,16,16,17,17,19,19,20,20,21,21,22,22],"right_children":[2,4,6,8,10,12,-1,-1,14,-1,-1,16,18,-1,-1,-1,20,22,-1,24,26,28,30,-1,-1,-1,-1,-1,-1,-1,-1],"split_conditions":[7.692308E-1,1.1747174E0,1.0434783E0,7.5609756E-1,3.5E1,1.00209735E-1,-9.677419E-2,-9.863946E-2,3.9E1,1.7995445E-2,8.341014E-2,9.285714E-1,8.8461536E-1,-6.666667E-2,5.649547E-2,-8.974359E-2,6.737977E-2,1.3379683E-1,9.479016E-2,2.9786644E1,2.810162E1,1.525182E0,8.161212E-1,-5E-2,5.649547E-2,2.8535983E-2,8.385651E-2,-8.709677E-2,7.2200775E-2,3.4743205E-2,9.571599E-2],"split_indices":[3,16,3,3,1,17,0,0,0,0,0,3,3,0,0,0,17,17,0,13,13,20,16,0,0,0,0,0,0,0,0],"split_type":[0,0,0,0,0,0,0,0,0,0,0,0,0,0,0,0,0,0,0,0,0,0,0,0,0,0,0,0,0,0,0],"sum_hessian":[2.4706944E2,8.5888885E1,1.6118056E2,7.5798615E1,1.0090279E1,1.3118056E2,3E1,7.25E1,3.2986112E0,2.0486112E0,8.041667E0,1.8041668E1,1.1313889E2,2E0,1.2986112E0,8.75E0,9.291667E0,4.6958336E1,6.618056E1,2.2986112E0,6.993056E0,9.347222E0,3.7611115E1,1E0,1.2986112E0,1.7986112E0,5.1944447E0,6.75E0,2.5972223E0,3.5972223E0,3.401389E1],"tree_param":{"num_deleted":"0","num_feature":"21","num_nodes":"31","size_leaf_vector":"1"}},{"base_weights":[-3.2670468E-2,-1.5704263E0,6.9381005E-1,-9.397202E-2,1.1421677E0,1.2466658E0,-9.2253484E-2,-1.8674608E-2,8.1136495E-2,-3.1102127E-1,1.4933137E0,5.4193873E-2,-5.6805175E-2,-8.6573035E-2,1.1676353E0,9.4784266E-1,1.7328875E0,7.5717443E-3,1.4409398E0,-1.1804034E0,1.5654166E0,6.451106E-3,8.8871345E-2,2.7063191E-2,8.07317E-2,5.449694E-2,-8.427324E-2,8.373442E-2,7.8051197E-3],"categories":[],"categories_nodes":[],"categories_segments":[],"categories_sizes":[],"default_left":[0,0,0,0,0,0,0,0,0,0,0,0,0,0,0,0,0,0,0,0,0,0,0,0,0,0,0,0,0],"id":1,"left_children":[1,3,5,-1,7,9,-1,11,-1,13,15,-1,-1,-1,17,19,21,-1,23,25,27,-1,-1,-1,-1,-1,-1,-1,-1],"loss_changes":[2.7617175E2,6.8627594E1,2.3800487E2,0E0,4.9020653E0,5.3673645E1,0E0,5.5994453E0,0E0,4.352303E1,1.4004425E1,0E0,0E0,0E0,2.6364632E0,5.2774803E1,5.6274414E0,0E0,3.7348366E-1,1.2483633E1,4.42968E0,0E0,0E0,0E0,0E0,0E0,0E0,0E0,0E0],"parents":[2147483647,0,0,1,1,2,2,4,4,5,5,7,7,9,9,10,10,14,14,15,15,16,16,18,18,19,19,20,20],"right_children":[2,4,6,-1,8,10,-1,12,-1,14,16,-1,-1,-1,18,20,22,-1,24,26,28,-1,-1,-1,-1,-1,-1,-1,-1],"split_conditions":[7.5E-1,1.1747174E0,1.0434783E0,-9.397202E-2,1.04166664E-1,1.00209735E-1,-9.2253484E-2,8.695652E-2,8.1136495E-2,9.285714E-1,8.4210527E-1,5.4193873E-2,-5.6805175E-2,-8.6573035E-2,9.4736844E-1,1.3412718E-1,4.6294624E-1,7.5717443E-3,1.1E1,2.1588612E1,1.5979417E2,6.451106E-3,8.8871345E-2,2.7063191E-2,8.07317E-2,5.449694E-2,-8.427324E-2,8.373442E-2,7.8051197E-3],"split_indices":[3,16,3,0,5,17,0,5,0,3,3,0,0,0,3,17,20,0,0,14,14,0,0,0,0,0,0,0,0],"split_type":[0,0,0,0,0,0,0,0,0,0,0,0,0,0,0,0,0,0,0,0,0,0,0,0,0,0,0,0,0],"sum_hessian":[2.4523572E2,7.831118E1,1.6692453E2,7.057818E1,7.732997E0,1.374935E2,2.943104E1,2.545426E0,5.1875715E0,1.8759314E1,1.18734184E2,1.2963551E0,1.2490706E0,9.48081E0,9.278503E0,3.7746914E1,8.098727E1,2.2959168E0,6.982587E0,8.284842E0,2.9462074E1,2.2935429E0,7.8693726E1,1.7960186E0,5.1865683E0,1.2969202E0,6.9879208E0,2.7167341E1,2.294733E0],"tree_param":{"num_deleted":"0","num_feature":"21","num_nodes":"29","size_leaf_vector":"1"}},{"base_weights":[-3.557279E-2,-1.360824E0,6.7808294E-1,-9.0078294E-2,1.4643658E0,1.2442782E0,-8.83659E-2,1.4482135E-2,8.371161E-2,-1.0140682E-1,1.4801053E0,-8.2200944E-2,1.1409371E0,1.15832E0,1.7136253E0,6.8642856E-3,1.3685465E0,-7.9327303E-1,1.6460049E0,7.6678604E-1,8.772456E-2,8.098963E-2,1.5167569E-2,4.7957476E-2,-8.228518E-2,4.1902576E-2,8.913107E-2,5.2686628E-2,1.4902703E-2],"categories":[],"categories_nodes":[],"categories_segments":[],"categories_sizes":[],"default_left":[0,0,0,0,0,0,0,0,0,0,0,0,0,0,0,0,0,0,0,0,0,0,0,0,0,0,0,0,0],"id":2,"left_children":[1,3,5,-1,7,9,-1,-1,-1,11,13,-1,15,17,19,-1,21,23,25,27,-1,-1,-1,-1,-1,-1,-1,-1,-1],"loss_changes":[2.3078326E2,1.089778E2,2.2184613E2,0E0,2.4923782E0,4.121527E1,0E0,0E0,0E0,4.0648396E1,6.2935486E0,0E0,2.5069656E0,4.8336975E1,1.0441589E0,0E0,2.0522804E0,1.7344704E1,2.9058685E0,2.685058E-1,0E0,0E0,0E0,0E0,0E0,0E0,0E0,0E0,0E0],"parents":[2147483647,0,0,1,1,2,2,4,4,5,5,9,9,10,10,12,12,13,13,14,14,16,16,17,17,18,18,19,19],"right_children":[2,4,6,-1,8,10,-1,-1,-1,12,14,-1,16,18,20,-1,22,24,26,28,-1,-1,-1,-1,-1,-1,-1,-1,-1],"split_conditions":[7.5609756E-1,1.1429203E0,1.0434783E0,-9.0078294E-2,6.25E-1,1.00189984E-1,-8.83659E-2,1.4482135E-2,8.371161E-2,9.285714E-1,8.401598E-1,-8.2200944E-2,6.737977E-2,8.75E-1,7.659575E-1,6.8642856E-3,7.002554E-2,3.2147778E1,9.130435E-1,1E0,8.772456E-2,8.098963E-2,1.5167569E-2,4.7957476E-2,-8.228518E-2,4.1902576E-2,8.913107E-2,5.2686628E-2,1.4902703E-2],"split_indices":[3,16,3,0,3,17,0,0,0,3,16,0,17,3,3,0,17,14,3,12,0,0,0,0,0,0,0,0,0],"split_type":[0,0,0,0,0,0,0,0,0,0,0,0,0,0,0,0,0,0,0,0,0,0,0,0,0,0,0,0,0],"sum_hessian":[2.420398E2,8.440106E1,1.5763873E2,7.3324455E1,1.1076612E1,1.2840068E2,2.923804E1,2.0396779E0,9.036934E0,1.9231459E1,1.0916923E2,8.434751E0,1.0796707E1,4.841489E1,6.0754337E1,2.292226E0,8.504481E0,9.554313E0,3.8860577E1,3.3313801E0,5.742296E1,6.460095E0,2.0443866E0,3.0856516E0,6.4686613E0,6.6524057E0,3.220817E1,1.2922479E0,2.0391324E0],"tree_param":{"num_deleted":"0","num_feature":"21","num_nodes":"29","size_leaf_vector":"1"}},{"base_weights":[2.75061E-2,-1.3204969E0,7.2044164E-1,-8.6595155E-2,1.2701081E0,1.2264061E0,-8.492807E-2,4.2555588E-1,7.9572074E-2,-2.8192738E-1,1.4583063E0,6.436174E-2,-5.6388225E-2,-7.98566E-2,1.013599E0,8.797643E-1,1.5755978E0,5.56511E-3,1.2524186E0,-9.079295E-1,1.5686678E0,7.363252E-1,1.6129297E0,1.3817772E-2,7.654752E-2,-7.6278634E-2,5.1373392E-2,2.3566188E-2,8.331955E-2,-5.6959957E-2,7.254276E-2,3.6032375E-2,8.1855826E-2],"categories":[],"categories_nodes":[],"categories_segments":[],"categories_sizes":[],"default_left":[0,0,0,0,0,0,0,0,0,0,0,0,0,0,0,0,0,0,0,0,0,0,0,0,0,0,0,0,0,0,0,0,0],"id":3,"left_children":[1,3,5,-1,7,9,-1,11,-1,13,15,-1,-1,-1,17,19,21,-1,23,25,27,29,31,-1,-1,-1,-1,-1,-1,-1,-1,-1,-1],"loss_changes":[2.3938075E2,9.494168E1,2.0921979E2,0E0,2.7155933E0,4.9571213E1,0E0,7.890687E0,0E0,3.4958206E1,6.8910217E0,0E0,0E0,0E0,2.116496E0,2.9534603E1,1.9503174E0,0E0,1.8008547E0,9.914349E0,1.0207253E0,9.834467E0,8.714752E-1,0E0,0E0,0E0,0E0,0E0,0E0,0E0,0E0,0E0,0E0],"parents":[2147483647,0,0,1,1,2,2,4,4,5,5,7,7,9,9,10,10,14,14,15,15,16,16,18,18,19,19,20,20,21,21,22,22],"right_children":[2,4,6,-1,8,10,-1,12,-1,14,16,-1,-1,-1,18,20,22,-1,24,26,28,30,32,-1,-1,-1,-1,-1,-1,-1,-1,-1,-1],"split_conditions":[7.5609756E-1,1.1747174E0,1.0434783E0,-8.6595155E-2,1.04166664E-1,1.00209735E-1,-8.492807E-2,1.3636364E-1,7.9572074E-2,9.285714E-1,8.095238E-1,6.436174E-2,-5.6388225E-2,-7.98566E-2,9.4736844E-1,7.953141E0,4.6294624E-1,5.56511E-3,1.1E1,6E0,7.3637486E0,9.130435E-1,2.5569456E1,1.3817772E-2,7.654752E-2,-7.6278634E-2,5.1373392E-2,2.3566188E-2,8.331955E-2,-5.6959957E-2,7.254276E-2,3.6032375E-2,8.1855826E-2],"split_indices":[3,16,3,0,5,17,0,4,0,3,3,0,0,0,3,19,20,0,1,2,18,3,13,0,0,0,0,0,0,0,0,0,0],"split_type":[0,0,0,0,0,0,0,0,0,0,0,0,0,0,0,0,0,0,0,0,0,0,0,0,0,0,0,0,0,0,0,0,0],"sum_hessian":[2.5425609E2,8.601705E1,1.6823904E2,7.4515015E1,1.1502034E1,1.3954457E2,2.8694464E1,3.810732E0,7.6913023E0,1.8566702E1,1.20977875E2,2.5612319E0,1.2495002E0,9.097853E0,9.468848E0,2.1825218E1,9.915266E1,2.288521E0,7.1803274E0,5.9825807E0,1.5842637E1,5.105173E0,9.4047485E1,2.0363824E0,5.1439447E0,4.6957717E0,1.286809E0,1.7716492E0,1.4070988E1,1.2444255E0,3.8607478E0,3.2947595E0,9.075272E1],"tree_param":{"num_deleted":"0","num_feature":"21","num_nodes":"33","size_leaf_vector":"1"}},{"base_weights":[-1.1410169E-2,-1.2659402E0,6.473439E-1,-8.349772E-2,1.2239032E0,1.151426E0,-8.1933364E-2,4.0792993E-1,7.677822E-2,-3.592551E-1,1.3673093E0,6.2440444E-2,-5.4820772E-2,-7.836287E-2,1.2078782E0,7.2729206E-1,1.4831172E0,1.3056099E-2,7.4022815E-2,-7.8289054E-2,7.9636544E-2,6.252464E-1,1.5255803E0,-5.4788865E-2,6.917184E-2,2.2892773E-2,7.706734E-2],"categories":[],"categories_nodes":[],"categories_segments":[],"categories_sizes":[],"default_left":[0,0,0,0,0,0,0,0,0,0,0,0,0,0,0,0,0,0,0,0,0,0,0,0,0,0,0],"id":4,"left_children":[1,3,5,-1,7,9,-1,11,-1,13,15,-1,-1,-1,17,19,21,-1,-1,-1,-1,23,25,-1,-1,-1,-1],"loss_changes":[2.0327223E2,8.7230286E1,1.8774675E2,0E0,2.5269794E0,4.3780838E1,0E0,7.427038E0,0E0,3.481193E1,7.544922E0,0E0,0E0,0E0,1.7125292E0,4.1765717E1,2.600006E0,0E0,0E0,0E0,0E0,9.730967E0,8.474884E-1,0E0,0E0,0E0,0E0],"parents":[2147483647,0,0,1,1,2,2,4,4,5,5,7,7,9,9,10,10,14,14,15,15,16,16,21,21,22,22],"right_children":[2,4,6,-1,8,10,-1,12,-1,14,16,-1,-1,-1,18,20,22,-1,-1,-1,-1,24,26,-1,-1,-1,-1],"split_conditions":[7.5609756E-1,1.1747174E0,1.0434783E0,-8.349772E-2,1.04166664E-1,1.00209735E-1,-8.1933364E-2,1.7633726E-1,7.677822E-2,9.4736844E-1,6.6926557E-1,6.2440444E-2,-5.4820772E-2,-7.836287E-2,1.2539175E0,9.130435E-1,7.692308E-1,1.3056099E-2,7.4022815E-2,-7.8289054E-2,7.9636544E-2,3.9E1,2.5442188E1,-5.4788865E-2,6.917184E-2,2.2892773E-2,7.706734E-2],"split_indices":[3,16,3,0,5,17,0,17,0,3,16,0,0,0,18,3,3,0,0,0,0,0,13,0,0,0,0],"split_type":[0,0,0,0,0,0,0,0,0,0,0,0,0,0,0,0,0,0,0,0,0,0,0,0,0,0,0],"sum_hessian":[2.4397362E2,8.368408E1,1.6028954E2,7.228419E1,1.139989E1,1.3173691E2,2.855263E1,3.7888992E0,7.610991E0,1.6388868E1,1.1534803E2,2.5393517E0,1.2495475E0,9.254833E0,7.134034E0,1.8789146E1,9.655889E1,2.0324867E0,5.1015472E0,4.926533E0,1.3862613E1,5.295699E0,9.126319E1,1.4833577E0,3.8123412E0,1.7651486E0,8.949804E1],"tree_param":{"num_deleted":"0","num_feature":"21","num_nodes":"27","size_leaf_vector":"1"}},{"base_weights":[4.6183545E-2,-1.217597E0,6.709692E-1,-8.072638E-2,1.1819283E0,1.1447029E0,-7.926701E-2,1.2090118E-2,1.3425136E0,-1.769698E-1,1.334681E0,2.173627E-2,7.3977485E-2,-7.364033E-2,9.5372677E-1,1.3800362E0,1.2730563E-1,1.1247888E-3,1.2091062E0,9.96478E-1,7.6157086E-2,-6.1062336E-2,6.122588E-2,7.36727E-2,1.39713725E-2,-4.6364803E-2,7.233841E-2],"categories":[],"categories_nodes":[],"categories_segments":[],"categories_sizes":[],"default_left":[0,0,0,0,0,0,0,0,0,0,0,0,0,0,0,0,0,0,0,0,0,0,0,0,0,0,0],"id":5,"left_children":[1,3,5,-1,7,9,-1,-1,11,13,15,-1,-1,-1,17,19,21,-1,23,25,-1,-1,-1,-1,-1,-1,-1],"loss_changes":[1.9663805E2,8.039057E1,1.798939E2,0E0,1.5282955E0,3.495494E1,0E0,0E0,6.335316E-1,2.81599E1,6.45105E0,0E0,0E0,0E0,2.4362488E0,4.8784485E0,9.608171E0,0E0,1.5814419E0,3.127555E1,0E0,0E0,0E0,0E0,0E0,0E0,0E0],"parents":[2147483647,0,0,1,1,2,2,4,4,5,5,8,8,9,9,10,10,14,14,15,15,16,16,18,18,19,19],"right_children":[2,4,6,-1,8,10,-1,-1,12,14,16,-1,-1,-1,18,20,22,-1,24,26,-1,-1,-1,-1,-1,-1,-1],"split_conditions":[7.5609756E-1,1.1747174E0,1.0434783E0,-8.072638E-2,3.5E1,1.00209735E-1,-7.926701E-2,1.2090118E-2,6.25E-1,9.285714E-1,3.390497E2,2.173627E-2,7.3977485E-2,-7.364033E-2,2.8681343E1,8.4210527E-1,9.130435E-1,1.1247888E-3,2.9541515E1,8.161212E-1,7.6157086E-2,-6.1062336E-2,6.122588E-2,7.36727E-2,1.39713725E-2,-4.6364803E-2,7.233841E-2],"split_indices":[3,16,3,0,1,17,0,0,3,3,14,0,0,0,13,3,3,0,13,16,0,0,0,0,0,0,0],"split_type":[0,0,0,0,0,0,0,0,0,0,0,0,0,0,0,0,0,0,0,0,0,0,0,0,0,0,0],"sum_hessian":[2.4700287E2,8.1400925E1,1.6560194E2,7.012755E1,1.1273379E1,1.3727286E2,2.8329086E1,2.01027E0,9.263109E0,1.7260496E1,1.2001237E2,1.7621541E0,7.5009556E0,7.9019203E0,9.358576E0,1.1552948E2,4.482881E0,2.2483056E0,7.1102705E0,3.3555546E1,8.197394E1,1.9603834E0,2.5224974E0,5.080702E0,2.0295687E0,6.163576E0,2.7391972E1],"tree_param":{"num_deleted":"0","num_feature":"21","num_nodes":"27","size_leaf_vector":"1"}},{"base_weights":[1.2620349E-2,-1.1872073E0,6.2442917E-1,-7.829534E-2,1.143376E0,1.0824933E0,-7.685699E-2,3.512256E-1,7.259745E-2,-3.4392345E-1,1.2819062E0,5.863599E-2,-5.37693E-2,-7.191824E-2,8.127578E-1,1.0455575E0,7.841551E-2,7.006086E-2,1.1393788E-1,-5.5846566E-1,1.2563473E0,-5.967455E-2,4.8006102E-2,-7.331791E-2,5.9198E-2,4.2847525E-2,7.5368404E-2],"categories":[],"categories_nodes":[],"categories_segments":[],"categories_sizes":[],"default_left":[0,0,0,0,0,0,0,0,0,0,0,0,0,0,0,0,0,0,0,0,0,0,0,0,0,0,0],"id":6,"left_children":[1,3,5,-1,7,9,-1,11,-1,13,15,-1,-1,-1,17,19,-1,-1,21,23,25,-1,-1,-1,-1,-1,-1],"loss_changes":[1.7995811E2,7.486392E1,1.6241133E2,0E0,2.460145E0,3.8712326E1,0E0,6.7990894E0,0E0,2.3058197E1,6.365143E0,0E0,0E0,0E0,3.5600915E0,2.3622215E1,0E0,0E0,6.924794E0,1.52870455E1,4.746109E0,0E0,0E0,0E0,0E0,0E0,0E0],"parents":[2147483647,0,0,1,1,2,2,4,4,5,5,7,7,9,9,10,10,14,14,15,15,18,18,19,19,20,20],"right_children":[2,4,6,-1,8,10,-1,12,-1,14,16,-1,-1,-1,18,20,-1,-1,22,24,26,-1,-1,-1,-1,-1,-1],"split_conditions":[7.5609756E-1,1.1747174E0,1.0434783E0,-7.829534E-2,1.04166664E-1,1.00209735E-1,-7.685699E-2,1.3636364E-1,7.259745E-2,9.285714E-1,8.389017E0,5.863599E-2,-5.37693E-2,-7.191824E-2,1.768689E2,8.095238E-1,7.841551E-2,7.006086E-2,3E0,6E0,9.130435E-1,-5.967455E-2,4.8006102E-2,-7.331791E-2,5.9198E-2,4.2847525E-2,7.5368404E-2],"split_indices":[3,16,3,0,5,17,0,4,0,3,19,0,0,0,14,3,0,0,12,2,3,0,0,0,0,0,0],"split_type":[0,0,0,0,0,0,0,0,0,0,0,0,0,0,0,0,0,0,0,0,0,0,0,0,0,0,0],"sum_hessian":[2.4314288E2,8.1794304E1,1.6134857E2,7.064346E1,1.1150846E1,1.3354738E2,2.780119E1,3.7254128E0,7.425432E0,1.6291105E1,1.1725627E2,2.4770226E0,1.2483902E0,8.245634E0,8.045472E0,6.678995E1,5.0466328E1,3.8219676E0,4.223505E0,7.56605E0,5.9223896E1,1.498206E0,2.7252986E0,5.078389E0,2.487661E0,2.4560223E1,3.4663673E1],"tree_param":{"num_deleted":"0","num_feature":"21","num_nodes":"27","size_leaf_vector":"1"}},{"base_weights":[-1.1398188E-3,-1.1462414E0,5.8439666E-1,-7.6069705E-2,1.1076052E0,1.05231E0,-7.477277E-2,3.3745933E-1,7.0460826E-2,2.2229567E-1,1.3469466E0,5.7103433E-2,-5.235042E-2,-7.7226065E-2,1.2778041E0,1.0127975E0,7.42289E-2,2.5670498E-3,1.4133182E0,-5.919685E-2,1.2022958E0,1.5480585E-2,7.6030724E-2,2.7412912E-2,6.860664E-2],"categories":[],"categories_nodes":[],"categories_segments":[],"categories_sizes":[],"default_left":[0,0,0,0,0,0,0,0,0,0,0,0,0,0,0,0,0,0,0,0,0,0,0,0,0],"id":7,"left_children":[1,3,5,-1,7,9,-1,11,-1,13,15,-1,-1,-1,17,19,-1,-1,21,-1,23,-1,-1,-1,-1],"loss_changes":[1.5848947E2,6.9305954E1,1.5378313E2,0E0,2.3097277E0,3.1068161E1,0E0,6.419414E0,0E0,6.687296E1,2.8407898E0,0E0,0E0,0E0,3.6392403E0,1.4205101E1,0E0,0E0,1.9063377E0,0E0,2.4426384E0,0E0,0E0,0E0,0E0],"parents":[2147483647,0,0,1,1,2,2,4,4,5,5,7,7,9,9,10,10,14,14,15,15,18,18,20,20],"right_children":[2,4,6,-1,8,10,-1,12,-1,14,16,-1,-1,-1,18,20,-1,-1,22,-1,24,-1,-1,-1,-1],"split_conditions":[7.5609756E-1,1.1747174E0,1.0434783E0,-7.6069705E-2,1.04166664E-1,6.6926557E-1,-7.477277E-2,1.3636364E-1,7.0460826E-2,9.285714E-1,1.181668E0,5.7103433E-2,-5.235042E-2,-7.7226065E-2,2.8504341E1,8E-1,7.42289E-2,2.5670498E-3,6.737977E-2,-5.919685E-2,8.75E-1,1.5480585E-2,7.6030724E-2,2.7412912E-2,6.860664E-2],"split_indices":[3,16,3,0,5,16,0,4,0,3,20,0,0,0,13,3,0,0,17,0,3,0,0,0,0],"split_type":[0,0,0,0,0,0,0,0,0,0,0,0,0,0,0,0,0,0,0,0,0,0,0,0,0],"sum_hessian":[2.3437645E2,7.897391E1,1.5540254E2,6.798311E1,1.0990803E1,1.2726518E2,2.8137354E1,3.6892881E0,7.301515E0,3.3800632E1,9.3464554E1,2.4439976E0,1.2452904E0,1.2467676E1,2.1332956E1,2.9704657E1,6.3759895E1,2.2597804E0,1.9073175E1,1.9422015E0,2.7762455E1,2.0341735E0,1.7039003E1,6.594676E0,2.116778E1],"tree_param":{"num_deleted":"0","num_feature":"21","num_nodes":"25","size_leaf_vector":"1"}},{"base_weights":[2.430556E-2,-1.151996E0,6.013224E-1,-7.407331E-2,1.0233439E0,1.0364859E0,-7.272028E-2,3.2457137E-1,6.709521E-2,-8.8843584E-1,1.1498737E0,5.5665344E-2,-5.100867E-2,-6.511297E-2,1.7690575E-2,7.198467E-1,1.3966496E0,-8.361266E-1,1.1787373E0,1.18136015E-2,7.116214E-2,-7.527303E-2,5.6302994E-2,2.2159794E-2,7.261209E-2],"categories":[],"categories_nodes":[],"categories_segments":[],"categories_sizes":[],"default_left":[0,0,0,0,0,0,0,0,0,0,0,0,0,0,0,0,0,0,0,0,0,0,0,0,0],"id":8,"left_children":[1,3,5,-1,7,9,-1,11,-1,13,15,-1,-1,-1,-1,17,19,21,23,-1,-1,-1,-1,-1,-1],"loss_changes":[1.5745865E2,5.623912E1,1.407135E2,0E0,1.9317236E0,2.9179504E1,0E0,6.0667973E0,0E0,4.4400263E0,1.1969803E1,0E0,0E0,0E0,0E0,3.4291218E1,2.028183E0,1.6416113E1,6.686455E0,0E0,0E0,0E0,0E0,0E0,0E0],"parents":[2147483647,0,0,1,1,2,2,4,4,5,5,7,7,9,9,10,10,15,15,16,16,17,17,18,18],"right_children":[2,4,6,-1,8,10,-1,12,-1,14,16,-1,-1,-1,-1,18,20,22,24,-1,-1,-1,-1,-1,-1],"split_conditions":[7.5609756E-1,1.1747174E0,1.0434783E0,-7.407331E-2,1.04166664E-1,1.3E1,-7.272028E-2,1.3636364E-1,6.709521E-2,9.285714E-1,6.189549E0,5.5665344E-2,-5.100867E-2,-6.511297E-2,1.7690575E-2,8.75E-1,7.605634E-1,1.9459101E0,9.4736844E-1,1.18136015E-2,7.116214E-2,-7.527303E-2,5.6302994E-2,2.2159794E-2,7.261209E-2],"split_indices":[3,16,3,0,5,1,0,4,0,3,19,0,0,0,0,3,3,8,3,0,0,0,0,0,0],"split_type":[0,0,0,0,0,0,0,0,0,0,0,0,0,0,0,0,0,0,0,0,0,0,0,0,0],"sum_hessian":[2.2996411E2,7.5353226E1,1.5461089E2,6.571866E1,9.634566E0,1.2800926E2,2.660163E1,3.6490743E0,5.985492E0,6.7407036E0,1.21268555E2,2.4085112E0,1.240563E0,5.020081E0,1.720623E0,4.564516E1,7.56234E1,1.0208578E1,3.543658E1,1.9157495E0,7.370765E1,7.7855597E0,2.423018E0,1.0315454E1,2.5121128E1],"tree_param":{"num_deleted":"0","num_feature":"21","num_nodes":"25","size_leaf_vector":"1"}},{"base_weights":[2.2315271E-2,-1.121678E0,5.9025884E-1,-7.228027E-2,1.0622929E0,9.858893E-1,-7.074583E-2,9.548853E-3,6.2167805E-2,-5.709077E-2,1.1606871E0,-6.632267E-2,9.3078154E-1,8.766198E-1,6.937095E-2,7.830417E-4,1.1551954E0,-7.914084E-2,1.2712331E0,6.824494E-2,1.4346964E-2,8.181631E-3,6.90743E-2],"categories":[],"categories_nodes":[],"categories_segments":[],"categories_sizes":[],"default_left":[0,0,0,0,0,0,0,0,0,0,0,0,0,0,0,0,0,0,0,0,0,0,0],"id":9,"left_children":[1,3,5,-1,7,9,-1,-1,-1,11,13,-1,15,17,-1,-1,19,-1,21,-1,-1,-1,-1],"loss_changes":[1.4631313E2,5.439305E1,1.2075479E2,0E0,1.3759766E0,2.3083633E1,0E0,0E0,0E0,2.5154501E1,5.75119E0,0E0,2.305563E0,5.1250744E1,0E0,0E0,1.2602844E0,0E0,5.180496E0,0E0,0E0,0E0,0E0],"parents":[2147483647,0,0,1,1,2,2,4,4,5,5,9,9,10,10,12,12,13,13,16,16,18,18],"right_children":[2,4,6,-1,8,10,-1,-1,-1,12,14,-1,16,18,-1,-1,20,-1,22,-1,-1,-1,-1],"split_conditions":[7.5609756E-1,1.1747174E0,1.0434783E0,-7.228027E-2,3.5E1,1.00209735E-1,-7.074583E-2,9.548853E-3,6.2167805E-2,9.285714E-1,8.8461536E-1,-6.632267E-2,2.8504341E1,1.338304E-1,6.937095E-2,7.830417E-4,2.9541515E1,-7.914084E-2,8.161212E-1,6.824494E-2,1.4346964E-2,8.181631E-3,6.90743E-2],"split_indices":[3,16,3,0,1,17,0,0,0,3,3,0,13,17,0,0,13,0,16,0,0,0,0],"split_type":[0,0,0,0,0,0,0,0,0,0,0,0,0,0,0,0,0,0,0,0,0,0,0],"sum_hessian":[2.2317386E2,7.371558E1,1.4945827E2,6.448868E1,9.226902E0,1.252535E2,2.4204773E1,1.9410238E0,7.2858787E0,1.8075335E1,1.0717816E2,7.7606196E0,1.0314714E1,4.973393E1,5.7444237E1,2.2420022E0,8.072713E0,6.4601054E0,4.3273823E1,6.041543E0,2.0311692E0,4.1424956E0,3.9131325E1],"tree_param":{"num_deleted":"0","num_feature":"21","num_nodes":"23","size_leaf_vector":"1"}},{"base_weights":[5.2682973E-2,-1.0577291E0,5.950784E-1,-7.0639886E-2,1.0739253E0,1.0073975E0,-6.9353335E-2,7.1084546E-3,6.250017E-2,-1.6692276E-1,1.1845982E0,-6.501657E-2,8.784685E-1,6.7763174E-1,1.282889E0,9.7527885E-4,1.1321402E0,-7.078679E-2,6.840371E-2,5.3715616E-1,1.3166656E0,1.5590683E-2,6.591803E-2,-4.7935065E-2,5.7881583E-2,6.66192E-2,1.53737115E-2],"categories":[],"categories_nodes":[],"categories_segments":[],"categories_sizes":[],"default_left":[0,0,0,0,0,0,0,0,0,0,0,0,0,0,0,0,0,0,0,0,0,0,0,0,0,0,0],"id":10,"left_children":[1,3,5,-1,7,9,-1,-1,-1,11,13,-1,15,17,19,-1,21,-1,-1,23,25,-1,-1,-1,-1,-1,-1],"loss_changes":[1.368619E2,5.7972496E1,1.2611734E2,0E0,1.662797E0,2.6605606E1,0E0,0E0,0E0,2.1895481E1,4.6314545E0,0E0,2.0932984E0,3.0910923E1,1.5935516E0,0E0,7.3116684E-1,0E0,0E0,6.3511286E0,9.6559143E-1,0E0,0E0,0E0,0E0,0E0,0E0],"parents":[2147483647,0,0,1,1,2,2,4,4,5,5,9,9,10,10,12,12,13,13,14,14,16,16,19,19,20,20],"right_children":[2,4,6,-1,8,10,-1,-1,-1,12,14,-1,16,18,20,-1,22,-1,-1,24,26,-1,-1,-1,-1,-1,-1],"split_conditions":[7.5609756E-1,1.1747174E0,1.0434783E0,-7.0639886E-2,1.0204082E-1,1.00209735E-1,-6.9353335E-2,7.1084546E-3,6.250017E-2,9.285714E-1,6.6926557E-1,-6.501657E-2,9.4736844E-1,9.130435E-1,7.692308E-1,9.7527885E-4,1.1E1,-7.078679E-2,6.840371E-2,3E1,3.390497E2,1.5590683E-2,6.591803E-2,-4.7935065E-2,5.7881583E-2,6.66192E-2,1.53737115E-2],"split_indices":[3,16,3,0,5,17,0,0,0,3,16,0,3,3,3,0,1,0,0,1,14,0,0,0,0,0,0],"split_type":[0,0,0,0,0,0,0,0,0,0,0,0,0,0,0,0,0,0,0,0,0,0,0,0,0,0,0],"sum_hessian":[2.2519362E2,7.358913E1,1.5160449E2,6.3370728E1,1.0218397E1,1.2590577E2,2.5698727E1,1.9113711E0,8.307027E0,1.651537E1,1.09390396E2,7.807089E0,8.7082815E0,1.9046421E1,9.034398E1,2.2309406E0,6.477341E0,4.463367E0,1.4583054E1,4.647089E0,8.569689E1,1.6931615E0,4.7841797E0,1.2026362E0,3.4444525E0,8.4067276E1,1.6296109E0],"tree_param":{"num_deleted":"0","num_feature":"21","num_nodes":"27","size_leaf_vector":"1"}},{"base_weights":[1.8539296E-2,-1.0673137E0,5.496865E-1,-6.9128975E-2,9.897104E-1,9.521719E-1,-6.779287E-2,5.9439417E-2,4.0220553E-3,-2.2974972E-1,1.1193787E0,-6.265904E-2,7.0342654E-1,8.9209414E-1,1.3859018E0,6.271277E-2,6.739309E-2,-6.5903E-2,1.0633583E0,2.2841632E-2,7.020691E-2,-5.4905146E-2,3.6261436E-2,3.2653037E-2,6.437499E-2],"categories":[],"categories_nodes":[],"categories_segments":[],"categories_sizes":[],"default_left":[0,0,0,0,0,0,0,0,0,0,0,0,0,0,0,0,0,0,0,0,0,0,0,0,0],"id":11,"left_children":[1,3,5,-1,7,9,-1,-1,-1,11,13,-1,15,17,19,-1,21,-1,23,-1,-1,-1,-1,-1,-1],"loss_changes":[1.22946304E2,4.678203E1,1.1106258E2,0E0,1.6944618E0,2.3726173E1,0E0,0E0,0E0,1.5730346E1,5.0761566E0,0E0,2.9890528E0,2.3753338E1,1.405716E-1,0E0,4.7283263E0,0E0,4.250084E0,0E0,0E0,0E0,0E0,0E0,0E0],"parents":[2147483647,0,0,1,1,2,2,4,4,5,5,9,9,10,10,12,12,13,13,14,14,16,16,18,18],"right_children":[2,4,6,-1,8,10,-1,-1,-1,12,14,-1,16,18,20,-1,22,-1,24,-1,-1,-1,-1,-1,-1],"split_conditions":[7.5609756E-1,1.1747174E0,1.0434783E0,-6.9128975E-2,6.1E1,1.00189984E-1,-6.779287E-2,5.9439417E-2,4.0220553E-3,9.285714E-1,8.389017E0,-6.265904E-2,1.768689E2,8E-1,9.4339624E-2,6.271277E-2,2.9382584E2,-6.5903E-2,8.8461536E-1,2.2841632E-2,7.020691E-2,-5.4905146E-2,3.6261436E-2,3.2653037E-2,6.437499E-2],"split_indices":[3,16,3,0,0,17,0,0,0,3,19,0,14,3,5,0,14,0,3,0,0,0,0,0,0],"split_type":[0,0,0,0,0,0,0,0,0,0,0,0,0,0,0,0,0,0,0,0,0,0,0,0,0],"sum_hessian":[2.111545E2,6.9027794E1,1.4212671E2,6.0138634E1,8.889157E0,1.1775502E2,2.4371683E1,7.04032E0,1.8488374E0,1.4547831E1,1.0320719E2,6.774832E0,7.772999E0,5.8050385E1,4.5156807E1,3.6446228E0,4.128376E0,3.6932418E0,5.435714E1,1.3707988E0,4.3786007E1,1.2480042E0,2.880372E0,2.058652E1,3.3770622E1],"tree_param":{"num_deleted":"0","num_feature":"21","num_nodes":"25","size_leaf_vector":"1"}},{"base_weights":[5.431968E-3,-7.508288E-1,6.4138967E-1,-6.7261904E-2,-3.352782E-1,-9.0578906E-2,8.594055E-1,-1.0330355E0,1.3715388E-1,-6.8339986E-1,1.1075561E0,-5.5413593E-2,9.6834105E-1,-6.496108E-2,-6.6571784E-1,-5.5945136E-2,3.4650233E-1,4.0175888E-1,-6.442146E-2,1.4467277E-2,6.2330514E-2,7.021199E-1,1.2313628E0,4.7801625E-2,-9.5184124E-1,5.400024E-1,-5.7938334E-2,-4.6507545E-2,8.907001E-1,7.609471E-1,-3.748126E-2,1.1843251E-2,6.338989E-2,4.0766727E-2,-6.299806E-2,-4.5045994E-2,3.379221E-2,5.9920703E-3,5.6787934E-2,2.6309997E-2,5.2681502E-2],"categories":[],"categories_nodes":[],"categories_segments":[],"categories_sizes":[],"default_left":[0,0,0,0,0,0,0,0,0,0,0,0,0,0,0,0,0,0,0,0,0,0,0,0,0,0,0,0,0,0,0,0,0,0,0,0,0,0,0,0,0],"id":12,"left_children":[1,3,5,-1,7,9,11,13,15,17,19,-1,21,-1,23,-1,25,27,-1,-1,-1,29,31,-1,33,35,-1,-1,37,39,-1,-1,-1,-1,-1,-1,-1,-1,-1,-1,-1],"loss_changes":[9.946616E1,2.2884686E1,1.800462E1,0E0,1.8909681E1,1.971091E1,1.964693E1,1.3939648E0,9.546751E0,1.2644594E1,6.876974E-1,0E0,4.92202E0,0E0,6.3660574E0,0E0,9.544105E0,5.6307254E0,0E0,0E0,0E0,4.276594E0,1.1578865E0,0E0,6.742358E0,6.0530014E0,0E0,0E0,9.7934914E-1,2.345192E0,0E0,0E0,0E0,0E0,0E0,0E0,0E0,0E0,0E0,0E0,0E0],"parents":[2147483647,0,0,1,1,2,2,4,4,5,5,6,6,7,7,8,8,9,9,10,10,12,12,14,14,16,16,17,17,21,21,22,22,24,24,25,25,28,28,29,29],"right_children":[2,4,6,-1,8,10,12,14,16,18,20,-1,22,-1,24,-1,26,28,-1,-1,-1,30,32,-1,34,36,-1,-1,38,40,-1,-1,-1,-1,-1,-1,-1,-1,-1,-1,-1],"split_conditions":[2E1,1.3157895E-1,1.1904762E-1,-6.7261904E-2,2.8E1,3.5E1,6.701919E-1,3.4782776E-1,4.4013298E-1,1.3793103E-1,1.0204082E-1,-5.5413593E-2,8.389017E0,-6.496108E-2,1.8257546E-1,-5.5945136E-2,2.1E1,1.04166664E-1,-6.442146E-2,1.4467277E-2,6.2330514E-2,7.957689E0,1.25E-1,4.7801625E-2,1.1E1,1.3E1,-5.7938334E-2,-4.6507545E-2,2.9516493E1,6.2E1,-3.748126E-2,1.1843251E-2,6.338989E-2,4.0766727E-2,-6.299806E-2,-4.5045994E-2,3.379221E-2,5.9920703E-3,5.6787934E-2,2.6309997E-2,5.2681502E-2],"split_indices":[1,5,5,0,9,1,15,15,15,4,5,0,19,0,20,0,0,5,0,0,0,18,4,0,0,1,0,0,13,9,0,0,0,0,0,0,0,0,0,0,0],"split_type":[0,0,0,0,0,0,0,0,0,0,0,0,0,0,0,0,0,0,0,0,0,0,0,0,0,0,0,0,0,0,0,0,0,0,0,0,0,0,0,0,0],"sum_hessian":[2.0481062E2,9.3473854E1,1.1133676E2,3.7539536E1,5.593432E1,2.5685278E1,8.565149E1,2.2102886E1,3.3831432E1,1.747065E1,8.214627E0,4.011895E0,8.1639595E1,1.1344647E1,1.0758238E1,4.2124896E0,2.9618942E1,6.374158E0,1.1096493E1,1.6407975E0,6.5738297E0,4.2396656E1,3.9242935E1,1.2622821E0,9.495956E0,2.6813381E1,2.8055606E0,1.4693012E0,4.904856E0,4.1202885E1,1.1937735E0,1.6520138E0,3.759092E1,1.1654621E0,8.330494E0,1.8248129E0,2.4988567E1,1.5423276E0,3.3625288E0,2.4417004E1,1.6785881E1],"tree_param":{"num_deleted":"0","num_feature":"21","num_nodes":"41","size_leaf_vector":"1"}},{"base_weights":[-1.9890567E-2,-1.0017983E0,4.9326763E-1,-6.693589E-2,9.2798096E-1,8.9631575E-1,-6.582319E-2,2.0797203E-1,6.1633814E-2,2.5397944E-1,1.1609383E0,4.9961817E-2,-5.1107217E-2,-6.945097E-2,1.1798877E0,-7.347571E-4,1.1895546E0,1.3056252E-3,1.2841555E0,9.186373E-1,6.709897E-2,1.3745359E-2,6.799762E-2,-5.555519E-2,5.36753E-2],"categories":[],"categories_nodes":[],"categories_segments":[],"categories_sizes":[],"default_left":[0,0,0,0,0,0,0,0,0,0,0,0,0,0,0,0,0,0,0,0,0,0,0,0,0],"id":13,"left_children":[1,3,5,-1,7,9,-1,11,-1,13,15,-1,-1,-1,17,-1,19,-1,21,23,-1,-1,-1,-1,-1],"loss_changes":[1.0227628E2,4.6535812E1,9.843654E1,0E0,2.1448393E0,1.834214E1,0E0,5.3600755E0,0E0,5.2252785E1,2.620514E0,0E0,0E0,0E0,2.591425E0,0E0,1.8868942E0,0E0,1.1553764E0,1.073963E1,0E0,0E0,0E0,0E0,0E0],"parents":[2147483647,0,0,1,1,2,2,4,4,5,5,7,7,9,9,10,10,14,14,16,16,18,18,19,19],"right_children":[2,4,6,-1,8,10,-1,12,-1,14,16,-1,-1,-1,18,-1,20,-1,22,24,-1,-1,-1,-1,-1],"split_conditions":[7.605634E-1,1.1747174E0,1.0434783E0,-6.693589E-2,1.04166664E-1,6.6926557E-1,-6.582319E-2,1.3636364E-1,6.1633814E-2,9.285714E-1,2.5569456E1,4.9961817E-2,-5.1107217E-2,-6.945097E-2,1.3461539E-1,-7.347571E-4,1.2882168E0,1.3056252E-3,1.1E1,8E-1,6.709897E-2,1.3745359E-2,6.799762E-2,-5.555519E-2,5.36753E-2],"split_indices":[3,16,3,0,5,16,0,4,0,3,13,0,0,0,5,0,20,0,0,3,0,0,0,0,0],"split_type":[0,0,0,0,0,0,0,0,0,0,0,0,0,0,0,0,0,0,0,0,0,0,0,0,0],"sum_hessian":[2.0099916E2,6.866301E1,1.3233615E2,5.8717777E1,9.945232E0,1.08644485E2,2.3691658E1,3.4575179E0,6.487715E0,3.22709E1,7.637359E1,2.2183003E0,1.2392175E0,1.1451088E1,2.081981E1,1.8264151E0,7.454717E1,1.8292042E0,1.8990608E1,2.9370787E1,4.5176388E1,1.6498214E0,1.7340786E1,1.6444038E0,2.7726383E1],"tree_param":{"num_deleted":"0","num_feature":"21","num_nodes":"25","size_leaf_vector":"1"}},{"base_weights":[-2.5480622E-2,-1.0547986E0,4.8051015E-1,-6.557355E-2,7.774776E-1,8.6231387E-1,-6.454211E-2,4.9413717E-3,9.481075E-1,-7.4298376E-1,9.5444816E-1,5.65658E-2,9.596139E-3,8.80182E-2,-5.8868714E-2,5.864154E-1,1.1992712E0,-3.5466228E-2,3.9696444E-2,-7.910438E-1,1.1857932E0,7.197518E-1,1.2513763E0,-7.506977E-2,5.567894E-2,1.6334118E-2,6.360563E-2,-1.1130496E-2,6.1622143E-2,6.3903674E-2,2.6524603E-2],"categories":[],"categories_nodes":[],"categories_segments":[],"categories_sizes":[],"default_left":[0,0,0,0,0,0,0,0,0,0,0,0,0,0,0,0,0,0,0,0,0,0,0,0,0,0,0,0,0,0,0],"id":14,"left_children":[1,3,5,-1,7,9,-1,-1,11,13,15,-1,-1,17,-1,19,21,-1,-1,23,25,27,29,-1,-1,-1,-1,-1,-1,-1,-1],"loss_changes":[1.02288635E2,3.1456535E1,9.018658E1,0E0,8.99837E-1,1.6823235E1,0E0,0E0,7.165952E-1,2.4413218E0,8.620071E0,0E0,0E0,2.3381352E0,0E0,3.66813E1,6.2797546E-1,0E0,0E0,2.024283E1,1.8511734E0,4.3087506E0,3.5800934E-1,0E0,0E0,0E0,0E0,0E0,0E0,0E0,0E0],"parents":[2147483647,0,0,1,1,2,2,4,4,5,5,8,8,9,9,10,10,13,13,15,15,16,16,19,19,20,20,21,21,22,22],"right_children":[2,4,6,-1,8,10,-1,-1,12,14,16,-1,-1,18,-1,20,22,-1,-1,24,26,28,30,-1,-1,-1,-1,-1,-1,-1,-1],"split_conditions":[7.5609756E-1,1.1747174E0,1.0434783E0,-6.557355E-2,3.5E1,1.2E1,-6.454211E-2,4.9413717E-3,1.04E2,1.768689E2,8.8461536E-1,5.65658E-2,9.596139E-3,9.2E-1,-5.8868714E-2,1.3412718E-1,7.5399645E-2,-3.5466228E-2,3.9696444E-2,1.525182E0,7.692308E-1,9.4736844E-1,3.1502945E2,-7.506977E-2,5.567894E-2,1.6334118E-2,6.360563E-2,-1.1130496E-2,6.1622143E-2,6.3903674E-2,2.6524603E-2],"split_indices":[3,16,3,0,1,1,0,0,9,14,3,0,0,3,0,17,17,0,0,20,3,3,14,0,0,0,0,0,0,0,0],"split_type":[0,0,0,0,0,0,0,0,0,0,0,0,0,0,0,0,0,0,0,0,0,0,0,0,0,0,0,0,0,0,0],"sum_hessian":[1.9442404E2,6.3718758E1,1.3070529E2,5.6138847E1,7.579911E0,1.0795045E2,2.2754845E1,1.8401662E0,5.739745E0,5.475969E0,1.0247447E2,4.220998E0,1.5187472E0,2.1535463E0,3.3224223E0,4.229274E1,6.0181736E1,1.0090098E0,1.1445365E0,1.2726219E1,2.956652E1,7.3503604E0,5.2831375E1,9.423371E0,3.3028479E0,3.1363149E0,2.6430206E1,2.789277E0,4.561084E0,5.0199368E1,2.6320071E0],"tree_param":{"num_deleted":"0","num_feature":"21","num_nodes":"31","size_leaf_vector":"1"}},{"base_weights":[4.403901E-2,-9.562553E-1,5.249032E-1,-6.4496525E-2,8.8911766E-1,8.650779E-1,-6.330765E-2,4.385497E-3,1.0468888E0,2.5650194E-1,1.1019069E0,1.3093002E-2,5.925234E-2,-6.54385E-2,1.0801877E0,2.3719738E-1,1.1353835E0,3.690956E-3,1.1682572E0,-4.6046596E-2,4.8334472E-2,8.394542E-1,1.2375749E0,1.9463858E-2,6.4841904E-2,-6.4798966E-2,5.4497775E-2,2.8005077E-2,6.3027255E-2],"categories":[],"categories_nodes":[],"categories_segments":[],"categories_sizes":[],"default_left":[0,0,0,0,0,0,0,0,0,0,0,0,0,0,0,0,0,0,0,0,0,0,0,0,0,0,0,0,0],"id":15,"left_children":[1,3,5,-1,7,9,-1,-1,11,13,15,-1,-1,-1,17,19,21,-1,23,-1,-1,25,27,-1,-1,-1,-1,-1,-1],"loss_changes":[9.6927666E1,4.1439938E1,8.397467E1,0E0,1.2499771E0,1.6279411E1,0E0,0E0,6.4142704E-1,4.459783E1,2.1164856E0,0E0,0E0,0E0,1.9073944E0,4.5534225E0,1.3526535E0,0E0,1.5601349E0,0E0,0E0,1.3933933E1,1.7589569E-1,0E0,0E0,0E0,0E0,0E0,0E0],"parents":[2147483647,0,0,1,1,2,2,4,4,5,5,8,8,9,9,10,10,14,14,15,15,16,16,18,18,21,21,22,22],"right_children":[2,4,6,-1,8,10,-1,-1,12,14,16,-1,-1,-1,18,20,22,-1,24,-1,-1,26,28,-1,-1,-1,-1,-1,-1],"split_conditions":[7.5609756E-1,1.1747174E0,1.0434783E0,-6.4496525E-2,6.25E-1,6.6926557E-1,-6.330765E-2,4.385497E-3,3.1E1,9.285714E-1,7.659575E-1,1.3093002E-2,5.925234E-2,-6.54385E-2,1.1E1,3E1,1.1248313E0,3.690956E-3,1.4705883E-1,-4.6046596E-2,4.8334472E-2,8.5106385E-1,2.5442188E1,1.9463858E-2,6.4841904E-2,-6.4798966E-2,5.4497775E-2,2.8005077E-2,6.3027255E-2],"split_indices":[3,16,3,0,3,16,0,0,1,3,3,0,0,0,1,1,20,0,4,0,0,3,13,0,0,0,0,0,0],"split_type":[0,0,0,0,0,0,0,0,0,0,0,0,0,0,0,0,0,0,0,0,0,0,0,0,0,0,0,0,0],"sum_hessian":[1.994669E2,6.443679E1,1.3503012E2,5.482456E1,9.612231E0,1.1391187E2,2.1118246E1,1.8370023E0,7.775229E0,3.249444E1,8.1417435E1,1.5968904E0,6.1783385E0,1.1000665E1,2.1493774E1,3.3358994E0,7.8081535E1,1.8775254E0,1.961625E1,1.1877763E0,2.148123E0,2.240755E1,5.5673985E1,3.349782E0,1.6266466E1,1.9144038E0,2.0493147E1,2.6581805E0,5.3015804E1],"tree_param":{"num_deleted":"0","num_feature":"21","num_nodes":"29","size_leaf_vector":"1"}},{"base_weights":[3.2648813E-2,-9.157949E-1,4.8258156E-1,-6.342021E-2,9.324299E-1,8.20765E-1,-6.223711E-2,2.9700075E-3,5.5665266E-2,2.8940368E-1,1.0515393E0,-6.530627E-2,1.102102E0,1.9843735E-1,1.109783E0,3.671297E-3,1.1915041E0,-5.337232E-2,5.1898982E-2,7.100988E-1,1.2370428E0,7.3247934E-3,6.454656E-2,-6.855758E-2,5.4729532E-2,2.7180305E-2,6.318176E-2],"categories":[],"categories_nodes":[],"categories_segments":[],"categories_sizes":[],"default_left":[0,0,0,0,0,0,0,0,0,0,0,0,0,0,0,0,0,0,0,0,0,0,0,0,0,0,0],"id":16,"left_children":[1,3,5,-1,7,9,-1,-1,-1,11,13,-1,15,17,19,-1,21,-1,-1,23,25,-1,-1,-1,-1,-1,-1],"loss_changes":[7.956501E1,4.0286667E1,7.48653E1,0E0,1.5429316E0,1.2732758E1,0E0,0E0,0E0,4.4972374E1,3.4439774E0,0E0,2.0079727E0,7.410947E0,2.6217194E0,0E0,1.9821949E0,0E0,0E0,1.6678282E1,2.5070953E-1,0E0,0E0,0E0,0E0,0E0,0E0],"parents":[2147483647,0,0,1,1,2,2,4,4,5,5,9,9,10,10,12,12,13,13,14,14,16,16,19,19,20,20],"right_children":[2,4,6,-1,8,10,-1,-1,-1,12,14,-1,16,18,20,-1,22,-1,-1,24,26,-1,-1,-1,-1,-1,-1],"split_conditions":[7.5609756E-1,1.1747174E0,1.0434783E0,-6.342021E-2,1.0204082E-1,6.6926557E-1,-6.223711E-2,2.9700075E-3,5.5665266E-2,9.285714E-1,7.692308E-1,-6.530627E-2,2.810162E1,3.9E1,1.1248313E0,3.671297E-3,6.737977E-2,-5.337232E-2,5.1898982E-2,8.75E-1,2.5442188E1,7.3247934E-3,6.454656E-2,-6.855758E-2,5.4729532E-2,2.7180305E-2,6.318176E-2],"split_indices":[3,16,3,0,5,16,0,0,0,3,3,0,13,0,20,0,17,0,0,3,13,0,0,0,0,0,0],"split_type":[0,0,0,0,0,0,0,0,0,0,0,0,0,0,0,0,0,0,0,0,0,0,0,0,0,0,0],"sum_hessian":[1.844146E2,5.9002922E1,1.2541167E2,4.9813156E1,9.189769E0,1.0531705E2,2.0094624E1,1.8051707E0,7.384598E0,3.2572475E1,7.274457E1,1.0787257E1,2.1785217E1,4.9307303E0,6.781384E1,1.8875892E0,1.9897627E1,1.8578911E0,3.0728393E0,1.7966482E1,4.9847355E1,1.943567E0,1.795406E1,2.4014294E0,1.5565053E1,2.6328917E0,4.7214466E1],"tree_param":{"num_deleted":"0","num_feature":"21","num_nodes":"27","size_leaf_vector":"1"}},{"base_weights":[4.382034E-2,-9.719252E-1,4.689302E-1,-6.239445E-2,7.8970003E-1,7.919121E-1,-6.1355498E-2,3.1697887E-3,4.966218E-2,1.3571328E-1,1.0335175E0,-6.398721E-2,1.0340143E0,7.0542604E-1,1.1702085E0,-1.2159692E-2,1.1912686E0,-6.4820606E-1,9.598619E-1,1.2124022E0,2.2277626E-1,1.6874965E-2,6.310081E-2,-6.0325958E-2,3.456652E-2,1.5237701E-2,5.4822028E-2,2.638236E-2,6.188641E-2,1.8588016E-2,-5.1770284E-4],"categories":[],"categories_nodes":[],"categories_segments":[],"categories_sizes":[],"default_left":[0,0,0,0,0,0,0,0,0,0,0,0,0,0,0,0,0,0,0,0,0,0,0,0,0,0,0,0,0,0,0],"id":17,"left_children":[1,3,5,-1,7,9,-1,-1,-1,11,13,-1,15,17,19,-1,21,23,25,27,29,-1,-1,-1,-1,-1,-1,-1,-1,-1,-1],"loss_changes":[7.940701E1,2.7368923E1,7.194892E1,0E0,1.114191E0,1.721215E1,0E0,0E0,0E0,4.0237812E1,2.7553406E0,0E0,4.161213E0,9.576925E0,1.9223938E0,0E0,6.209812E-1,4.35718E0,1.6601639E0,2.5359344E-1,1.2761936E-1,0E0,0E0,0E0,0E0,0E0,0E0,0E0,0E0,0E0,0E0],"parents":[2147483647,0,0,1,1,2,2,4,4,5,5,9,9,10,10,12,12,13,13,14,14,16,16,17,17,18,18,19,19,20,20],"right_children":[2,4,6,-1,8,10,-1,-1,-1,12,14,-1,16,18,20,-1,22,24,26,28,30,-1,-1,-1,-1,-1,-1,-1,-1,-1,-1],"split_conditions":[7.5E-1,1.1747174E0,1.0434783E0,-6.239445E-2,6.25E-1,6.6926557E-1,-6.1355498E-2,3.1697887E-3,4.966218E-2,9.285714E-1,1.1993893E0,-6.398721E-2,2.8504341E1,8.333333E-1,1.3261806E2,-1.2159692E-2,6.737977E-2,2.9E1,8.75E-1,2.5442188E1,3.1E1,1.6874965E-2,6.310081E-2,-6.0325958E-2,3.456652E-2,1.5237701E-2,5.4822028E-2,2.638236E-2,6.188641E-2,1.8588016E-2,-5.1770284E-4],"split_indices":[3,16,3,0,3,16,0,0,0,3,20,0,13,3,14,0,17,1,3,13,0,0,0,0,0,0,0,0,0,0,0],"split_type":[0,0,0,0,0,0,0,0,0,0,0,0,0,0,0,0,0,0,0,0,0,0,0,0,0,0,0,0,0,0,0],"sum_hessian":[1.8184071E2,5.3270763E1,1.2856995E2,4.6308086E1,6.962675E0,1.08450485E2,2.0119461E1,1.8112068E0,5.1514683E0,2.9605053E1,7.884543E1,1.13291025E1,1.827595E1,2.5000029E1,5.38454E1,1.9436058E0,1.6332344E1,3.7107472E0,2.1289282E1,5.12819E1,2.5635042E0,1.6913934E0,1.464095E1,2.6892009E0,1.0215462E0,4.2302036E0,1.7059078E1,2.6077888E0,4.867411E1,1.2012126E0,1.3622917E0],"tree_param":{"num_deleted":"0","num_feature":"21","num_nodes":"31","size_leaf_vector":"1"}},{"base_weights":[-1.8678054E-3,-9.04634E-1,4.390448E-1,-6.1726034E-2,8.1711334E-1,7.876311E-1,-6.058386E-2,9.202972E-2,5.726374E-2,1.2857491E-1,1.0020895E0,4.4985898E-2,-5.1386368E-2,-9.71805E-1,1.0780547E0,7.6459235E-1,1.229304E0,-1.162811E0,2.3370167E-2,1.1048735E-3,6.151678E-2,-4.685111E-1,9.7374135E-1,2.0580659E-2,6.2401712E-2,-6.65143E-2,-5.7743057E-3,-6.41231E-2,4.4778224E-2,2.9326929E-2,5.6670476E-2],"categories":[],"categories_nodes":[],"categories_segments":[],"categories_sizes":[],"default_left":[0,0,0,0,0,0,0,0,0,0,0,0,0,0,0,0,0,0,0,0,0,0,0,0,0,0,0,0,0,0,0],"id":18,"left_children":[1,3,5,-1,7,9,-1,11,-1,13,15,-1,-1,17,19,21,23,25,-1,-1,-1,27,29,-1,-1,-1,-1,-1,-1,-1,-1],"loss_changes":[7.151387E1,3.4493614E1,7.041467E1,0E0,2.2933416E0,1.4043613E1,0E0,4.7488565E0,0E0,2.7966822E1,3.1346436E0,0E0,0E0,3.9687672E0,2.2730904E0,1.0659685E1,5.2093506E-2,1.8261108E0,0E0,0E0,0E0,8.268209E0,1.4465523E0,0E0,0E0,0E0,0E0,0E0,0E0,0E0,0E0],"parents":[2147483647,0,0,1,1,2,2,4,4,5,5,7,7,9,9,10,10,13,13,14,14,15,15,16,16,17,17,21,21,22,22],"right_children":[2,4,6,-1,8,10,-1,12,-1,14,16,-1,-1,18,20,22,24,26,-1,-1,-1,28,30,-1,-1,-1,-1,-1,-1,-1,-1],"split_conditions":[7.5609756E-1,1.1747174E0,1.0434783E0,-6.1726034E-2,1.04166664E-1,4.122723E0,-6.058386E-2,1.3636364E-1,5.726374E-2,9.4736844E-1,8.389017E0,4.4985898E-2,-5.1386368E-2,5.3E1,1.1E1,8.095238E-1,1.1764706E-1,9.285714E-1,2.3370167E-2,1.1048735E-3,6.151678E-2,6E0,8.666667E-1,2.0580659E-2,6.2401712E-2,-6.65143E-2,-5.7743057E-3,-6.41231E-2,4.4778224E-2,2.9326929E-2,5.6670476E-2],"split_indices":[3,16,3,0,5,19,0,4,0,3,19,0,0,9,0,3,4,3,0,0,0,2,3,0,0,0,0,0,0,0,0],"split_type":[0,0,0,0,0,0,0,0,0,0,0,0,0,0,0,0,0,0,0,0,0,0,0,0,0,0,0,0,0,0,0],"sum_hessian":[1.7766675E2,5.795417E1,1.19712585E2,4.8873077E1,9.081093E0,9.927198E1,2.0440607E1,3.2283611E0,5.8527317E0,2.476518E1,7.45068E1,1.9896905E0,1.2386707E0,1.1460157E1,1.3305024E1,3.8563324E1,3.594347E1,1.0286961E1,1.1731969E0,1.82123E0,1.1483794E1,5.4124494E0,3.3150875E1,1.3193998E0,3.4624073E1,8.63585E0,1.6511104E0,3.4272327E0,1.9852169E0,1.1043455E1,2.210742E1],"tree_param":{"num_deleted":"0","num_feature":"21","num_nodes":"31","size_leaf_vector":"1"}},{"base_weights":[3.794821E-3,-9.1492236E-1,4.3191406E-1,-6.0873467E-2,7.488192E-1,7.669471E-1,-5.9671905E-2,8.712237E-2,5.489509E-2,-7.7049047E-1,8.782912E-1,4.4144288E-2,-5.009833E-2,-5.2426483E-2,1.0693924E-3,5.4105705E-1,1.1162306E0,-9.3028605E-1,1.0870602E0,1.8286524E-2,5.6610454E-2,4.3064293E-2,-6.9069676E-2,1.2703219E-2,5.8623623E-2],"categories":[],"categories_nodes":[],"categories_segments":[],"categories_sizes":[],"default_left":[0,0,0,0,0,0,0,0,0,0,0,0,0,0,0,0,0,0,0,0,0,0,0,0,0],"id":19,"left_children":[1,3,5,-1,7,9,-1,11,-1,13,15,-1,-1,-1,-1,17,19,21,23,-1,-1,-1,-1,-1,-1],"loss_changes":[6.704151E1,2.818489E1,6.422596E1,0E0,1.9730773E0,1.7282013E1,0E0,4.506601E0,0E0,1.5819926E0,6.6915054E0,0E0,0E0,0E0,0E0,3.2785908E1,2.138977E-1,1.0276951E1,1.7873573E0,0E0,0E0,0E0,0E0,0E0,0E0],"parents":[2147483647,0,0,1,1,2,2,4,4,5,5,7,7,9,9,10,10,15,15,16,16,17,17,18,18],"right_children":[2,4,6,-1,8,10,-1,12,-1,14,16,-1,-1,-1,-1,18,20,22,24,-1,-1,-1,-1,-1,-1],"split_conditions":[7.5609756E-1,1.1747174E0,1.0434783E0,-6.0873467E-2,1.04166664E-1,1.3E1,-5.9671905E-2,1.3636364E-1,5.489509E-2,9.285714E-1,8.8461536E-1,4.4144288E-2,-5.009833E-2,-5.2426483E-2,1.0693924E-3,1.3412718E-1,6.904728E-2,2.1588612E1,8.161212E-1,1.8286524E-2,5.6610454E-2,4.3064293E-2,-6.9069676E-2,1.2703219E-2,5.8623623E-2],"split_indices":[3,16,3,0,5,1,0,4,0,3,3,0,0,0,0,17,17,14,16,0,0,0,0,0,0],"split_type":[0,0,0,0,0,0,0,0,0,0,0,0,0,0,0,0,0,0,0,0,0,0,0,0,0],"sum_hessian":[1.6844539E2,5.318234E1,1.15263054E2,4.522629E1,7.9560466E0,9.600229E1,1.926077E1,3.1792524E0,4.7767944E0,6.083366E0,8.991892E1,1.946408E0,1.2328442E0,4.2626038E0,1.8207622E0,3.8552273E1,5.1366646E1,1.0243844E1,2.830843E1,1.5688238E0,4.979782E1,1.8776178E0,8.366226E0,3.0023327E0,2.5306097E1],"tree_param":{"num_deleted":"0","num_feature":"21","num_nodes":"25","size_leaf_vector":"1"}},{"base_weights":[1.44320065E-2,-9.422954E-1,4.366109E-1,-6.0138073E-2,7.390324E-1,7.673118E-1,-5.897956E-2,4.6246815E-2,2.5656682E-1,-4.1176918E-1,8.6119896E-1,1.689591E-2,3.6703635E-3,-5.1199235E-2,4.5687312E-1,5.1080126E-1,1.1041012E0,1.0350534E-3,4.0707406E-2,-7.582631E-1,1.116878E0,4.748245E-3,1.1297969E0,-5.7069685E-2,4.5871645E-2,1.7382545E-2,5.9207805E-2,3.644706E-2,5.87856E-2],"categories":[],"categories_nodes":[],"categories_segments":[],"categories_sizes":[],"default_left":[0,0,0,0,0,0,0,0,0,0,0,0,0,0,0,0,0,0,0,0,0,0,0,0,0,0,0,0,0],"id":20,"left_children":[1,3,5,-1,7,9,-1,-1,11,13,15,-1,-1,-1,17,19,21,-1,-1,23,25,-1,27,-1,-1,-1,-1,-1,-1],"loss_changes":[6.8894485E1,2.376091E1,6.414607E1,0E0,4.466014E-1,1.129517E1,0E0,0E0,2.741611E-2,4.7039595E0,7.2548294E0,0E0,0E0,0E0,6.040885E-1,3.1206081E1,1.2772293E0,0E0,0E0,9.620131E0,9.917259E-1,0E0,9.9601746E-2,0E0,0E0,0E0,0E0,0E0,0E0],"parents":[2147483647,0,0,1,1,2,2,4,4,5,5,8,8,9,9,10,10,14,14,15,15,16,16,19,19,20,20,22,22],"right_children":[2,4,6,-1,8,10,-1,-1,12,14,16,-1,-1,-1,18,20,22,-1,-1,24,26,-1,28,-1,-1,-1,-1,-1,-1],"split_conditions":[7.5609756E-1,1.1747174E0,1.0434783E0,-6.0138073E-2,1.2739338E0,1.3E1,-5.897956E-2,4.6246815E-2,2E0,9.285714E-1,8.8461536E-1,1.689591E-2,3.6703635E-3,-5.1199235E-2,1.1E1,8.401598E-1,6.78114E-2,1.0350534E-3,4.0707406E-2,9.706117E0,7.659575E-1,4.748245E-3,9E-1,-5.7069685E-2,4.5871645E-2,1.7382545E-2,5.9207805E-2,3.644706E-2,5.87856E-2],"split_indices":[3,16,3,0,16,1,0,0,12,3,3,0,0,0,0,16,17,0,0,19,3,0,3,0,0,0,0,0,0],"split_type":[0,0,0,0,0,0,0,0,0,0,0,0,0,0,0,0,0,0,0,0,0,0,0,0,0,0,0,0,0],"sum_hessian":[1.6855028E2,5.122774E1,1.1732253E2,4.4602673E1,6.625072E0,9.7830154E1,1.9492382E1,4.120323E0,2.5047488E0,6.965697E0,9.0864456E1,1.1493287E0,1.3554201E0,3.9810417E0,2.9846551E0,3.8471073E1,5.2393383E1,1.8203089E0,1.1643462E0,1.2353331E1,2.6117743E1,1.4175675E0,5.0975815E1,1.0313995E1,2.0393348E0,2.596611E0,2.3521132E1,6.973186E0,4.400263E1],"tree_param":{"num_deleted":"0","num_feature":"21","num_nodes":"29","size_leaf_vector":"1"}},{"base_weights":[-2.3039717E-2,-8.98171E-1,3.941941E-1,-5.947066E-2,7.109976E-1,7.129397E-1,-5.810966E-2,6.126877E-2,5.3178173E-2,1.3635968E-1,9.309239E-1,4.2737465E-2,-4.9418867E-2,-5.969548E-2,9.0484434E-1,5.547082E-1,1.0936002E0,-3.5757087E-3,1.0482265E0,-5.9796054E-2,8.535784E-1,7.1400267E-1,5.8228344E-2,-3.157588E-4,5.9634086E-2,-1.4188937E-3,5.3428587E-2,-6.5133446E-3,5.383438E-2],"categories":[],"categories_nodes":[],"categories_segments":[],"categories_sizes":[],"default_left":[0,0,0,0,0,0,0,0,0,0,0,0,0,0,0,0,0,0,0,0,0,0,0,0,0,0,0,0,0],"id":21,"left_children":[1,3,5,-1,7,9,-1,11,-1,13,15,-1,-1,-1,17,19,21,-1,23,-1,25,27,-1,-1,-1,-1,-1,-1,-1],"loss_changes":[5.920212E1,2.5374E1,5.531472E1,0E0,1.915554E0,1.1408577E1,0E0,4.261829E0,0E0,2.8018915E1,3.4589653E0,0E0,0E0,0E0,2.4928045E0,1.2574683E1,3.9009476E-1,0E0,2.3113632E0,0E0,3.717556E0,3.1187463E0,0E0,0E0,0E0,0E0,0E0,0E0,0E0],"parents":[2147483647,0,0,1,1,2,2,4,4,5,5,7,7,9,9,10,10,14,14,15,15,16,16,18,18,20,20,21,21],"right_children":[2,4,6,-1,8,10,-1,12,-1,14,16,-1,-1,-1,18,20,22,-1,24,-1,26,28,-1,-1,-1,-1,-1,-1,-1],"split_conditions":[7.5609756E-1,1.1747174E0,1.0434783E0,-5.947066E-2,1.04166664E-1,6.34424E-1,-5.810966E-2,1.3636364E-1,5.3178173E-2,9.285714E-1,8.4210527E-1,4.2737465E-2,-4.9418867E-2,-5.969548E-2,6.737977E-2,1.1248313E0,7.071199E-1,-3.5757087E-3,2.810162E1,-5.9796054E-2,8.161212E-1,2.9301598E1,5.8228344E-2,-3.157588E-4,5.9634086E-2,-1.4188937E-3,5.3428587E-2,-6.5133446E-3,5.383438E-2],"split_indices":[3,16,3,0,5,16,0,4,0,3,3,0,0,0,17,20,20,0,13,0,16,13,0,0,0,0,0,0,0],"split_type":[0,0,0,0,0,0,0,0,0,0,0,0,0,0,0,0,0,0,0,0,0,0,0,0,0,0,0,0,0],"sum_hessian":[1.6016824E2,5.1337402E1,1.0883083E2,4.369071E1,7.6466956E0,9.078097E1,1.8049868E1,3.1026793E0,4.5440164E0,2.5351206E1,6.542976E1,1.8726938E0,1.2299855E0,9.079953E0,1.6271252E1,2.1082628E1,4.4347137E1,2.1477065E0,1.4123546E1,2.636701E0,1.8445927E1,8.727143E0,3.561999E1,1.8168192E0,1.2306726E1,3.785376E0,1.466055E1,2.815037E0,5.912106E0],"tree_param":{"num_deleted":"0","num_feature":"21","num_nodes":"29","size_leaf_vector":"1"}},{"base_weights":[6.596929E-3,-8.794115E-1,4.1817173E-1,-5.8777183E-2,6.9931173E-1,7.2478825E-1,-5.7307433E-2,-5.644823E-4,8.7598616E-1,1.6463926E-1,9.5165294E-1,8.65634E-3,5.1783334E-2,-5.9308972E-2,9.364278E-1,1.063759E-1,1.011673E0,-6.8600527E-3,1.0975089E0,-4.9940266E-2,4.6054993E-2,6.4746946E-1,1.1302054E0,-1.1041408E-2,1.2941726E-2,9.290297E-3,5.9320122E-2,-5.6986865E-2,4.690726E-2,1.6558047E-2,5.727349E-2],"categories":[],"categories_nodes":[],"categories_segments":[],"categories_sizes":[],"default_left":[0,0,0,0,0,0,0,0,0,0,0,0,0,0,0,0,0,0,0,0,0,0,0,0,0,0,0,0,0,0,0],"id":22,"left_children":[1,3,5,-1,7,9,-1,-1,11,13,15,-1,-1,-1,17,19,21,23,25,-1,-1,27,29,-1,-1,-1,-1,-1,-1,-1,-1],"loss_changes":[5.7250767E1,2.4104095E1,5.2243908E1,0E0,1.076129E0,1.1310299E1,0E0,0E0,5.855093E-1,2.9489452E1,3.1400948E0,0E0,0E0,0E0,2.7246075E0,5.747701E0,1.8434677E0,2.6193252E-1,1.0179062E0,0E0,0E0,9.894853E0,1.532402E-1,0E0,0E0,0E0,0E0,0E0,0E0,0E0,0E0],"parents":[2147483647,0,0,1,1,2,2,4,4,5,5,8,8,9,9,10,10,14,14,15,15,16,16,17,17,18,18,21,21,22,22],"right_children":[2,4,6,-1,8,10,-1,-1,12,14,16,-1,-1,-1,18,20,22,24,26,-1,-1,28,30,-1,-1,-1,-1,-1,-1,-1,-1],"split_conditions":[7.5609756E-1,1.1747174E0,1.0434783E0,-5.8777183E-2,3.5E1,6.6926557E-1,-5.7307433E-2,-5.644823E-4,6.25E-1,9.285714E-1,7.692308E-1,8.65634E-3,5.1783334E-2,-5.9308972E-2,9.4736844E-1,3.9E1,1.1248313E0,2.1990056E2,1.1E1,-4.9940266E-2,4.6054993E-2,8.5106385E-1,1.1764706E-1,-1.1041408E-2,1.2941726E-2,9.290297E-3,5.9320122E-2,-5.6986865E-2,4.690726E-2,1.6558047E-2,5.727349E-2],"split_indices":[3,16,3,0,1,16,0,0,3,3,3,0,0,0,3,0,20,14,0,0,0,3,4,0,0,0,0,0,0,0,0],"split_type":[0,0,0,0,0,0,0,0,0,0,0,0,0,0,0,0,0,0,0,0,0,0,0,0,0,0,0,0,0,0,0],"sum_hessian":[1.5498975E2,4.8799976E1,1.06189766E2,4.13071E1,7.4928775E0,8.923569E1,1.6954075E1,1.6783783E0,5.8144994E0,2.6220549E1,6.301514E1,1.4622741E0,4.3522253E0,9.33867E0,1.6881878E1,4.361626E0,5.8653515E1,2.6020045E0,1.4279874E1,1.7550032E0,2.6066227E0,1.5988746E1,4.266477E1,1.5348388E0,1.0671657E0,1.5431671E0,1.2736707E1,1.8280529E0,1.4160692E1,1.2251815E0,4.1439587E1],"tree_param":{"num_deleted":"0","num_feature":"21","num_nodes":"31","size_leaf_vector":"1"}},{"base_weights":[8.099376E-5,-8.6703634E-1,4.084328E-1,-5.835346E-2,8.2583916E-1,7.294889E-1,-5.6783367E-2,-2.1210576E-3,5.336572E-2,1.9834739E-1,9.4781435E-1,-5.8220375E-2,9.292622E-1,5.2813035E-1,1.0422548E0,-4.6405727E-3,1.0756614E0,-6.1975884E-1,9.227712E-1,1.2863519E-2,1.075818E0,8.454847E-3,5.8187466E-2,-5.9273995E-2,2.2506287E-2,4.929944E-2,1.0311368E-2,1.9951748E-2,5.5145778E-2],"categories":[],"categories_nodes":[],"categories_segments":[],"categories_sizes":[],"default_left":[0,0,0,0,0,0,0,0,0,0,0,0,0,0,0,0,0,0,0,0,0,0,0,0,0,0,0,0,0],"id":23,"left_children":[1,3,5,-1,7,9,-1,-1,-1,11,13,-1,15,17,19,-1,21,23,25,-1,27,-1,-1,-1,-1,-1,-1,-1,-1],"loss_changes":[5.3430016E1,2.5501373E1,5.1683807E1,0E0,1.6929584E0,9.730766E0,0E0,0E0,0E0,2.7160433E1,1.8416634E0,0E0,2.7329721E0,6.5124264E0,9.9417496E-1,0E0,1.038784E0,2.9263215E0,2.5691032E-1,0E0,4.0253448E-1,0E0,0E0,0E0,0E0,0E0,0E0,0E0,0E0],"parents":[2147483647,0,0,1,1,2,2,4,4,5,5,9,9,10,10,12,12,13,13,14,14,16,16,17,17,18,18,20,20],"right_children":[2,4,6,-1,8,10,-1,-1,-1,12,14,-1,16,18,20,-1,22,24,26,-1,28,-1,-1,-1,-1,-1,-1,-1,-1],"split_conditions":[7.605634E-1,1.1747174E0,1.0434783E0,-5.835346E-2,1.04166664E-1,6.6926557E-1,-5.6783367E-2,-2.1210576E-3,5.336572E-2,9.285714E-1,9.4650936E-1,-5.8220375E-2,6.737977E-2,8.8235295E-1,7.692308E-1,-4.6405727E-3,2.810162E1,2.953611E2,3.1502945E2,1.2863519E-2,2.5442188E1,8.454847E-3,5.8187466E-2,-5.9273995E-2,2.2506287E-2,4.929944E-2,1.0311368E-2,1.9951748E-2,5.5145778E-2],"split_indices":[3,16,3,0,5,16,0,0,0,3,20,0,17,3,3,0,13,14,14,0,13,0,0,0,0,0,0,0,0],"split_type":[0,0,0,0,0,0,0,0,0,0,0,0,0,0,0,0,0,0,0,0,0,0,0,0,0,0,0,0,0],"sum_hessian":[1.4889423E2,4.7310074E1,1.0158415E2,4.045137E1,6.858703E0,8.453485E1,1.7049295E1,1.6718048E0,5.186898E0,2.5181606E1,5.935325E1,8.584026E0,1.659758E1,1.211364E1,4.723961E1,2.1253898E0,1.447219E1,2.9532127E0,9.160427E0,2.2922873E0,4.494732E1,1.540246E0,1.2931944E1,1.8610852E0,1.0921276E0,8.072216E0,1.088211E0,2.3357592E0,4.261156E1],"tree_param":{"num_deleted":"0","num_feature":"21","num_nodes":"29","size_leaf_vector":"1"}},{"base_weights":[3.3245396E-2,-8.961818E-1,4.461003E-1,-5.7576824E-2,6.0105824E-1,7.398649E-1,-5.600318E-2,-1.4682916E-2,5.1211525E-2,4.3693975E-1,1.0803466E0,-6.9757587E-1,1.0060395E0,3.278445E-1,5.602292E-2,-1.0568161E0,4.5968525E-2,9.040466E-4,1.0630553E0,2.1909496E-2,4.119272E-3,7.6978193E-3,-6.470171E-2,1.3244054E-2,5.4921996E-2],"categories":[],"categories_nodes":[],"categories_segments":[],"categories_sizes":[],"default_left":[0,0,0,0,0,0,0,0,0,0,0,0,0,0,0,0,0,0,0,0,0,0,0,0,0],"id":24,"left_children":[1,3,5,-1,7,9,-1,-1,-1,11,13,15,17,19,-1,21,-1,-1,23,-1,-1,-1,-1,-1,-1],"loss_changes":[5.776113E1,1.8398254E1,4.875865E1,0E0,3.1043208E0,8.63781E0,0E0,0E0,0E0,3.1963842E1,8.6735916E-1,1.0710048E1,1.8201561E0,5.8257073E-2,0E0,4.2727613E0,0E0,0E0,5.8049774E-1,0E0,0E0,0E0,0E0,0E0,0E0],"parents":[2147483647,0,0,1,1,2,2,4,4,5,5,9,9,10,10,11,11,12,12,13,13,15,15,18,18],"right_children":[2,4,6,-1,8,10,-1,-1,-1,12,14,16,18,20,-1,22,-1,-1,24,-1,-1,-1,-1,-1,-1],"split_conditions":[7.5609756E-1,1.1747174E0,1.0434783E0,-5.7576824E-2,1.04166664E-1,1.3412718E-1,-5.600318E-2,-1.4682916E-2,5.1211525E-2,9.130435E-1,7.659575E-1,1.525182E0,1.2E1,7.586207E-1,5.602292E-2,1.3157895E-1,4.5968525E-2,9.040466E-4,6.737977E-2,2.1909496E-2,4.119272E-3,7.6978193E-3,-6.470171E-2,1.3244054E-2,5.4921996E-2],"split_indices":[3,16,3,0,5,17,0,0,0,3,3,20,1,3,0,4,0,0,17,0,0,0,0,0,0],"split_type":[0,0,0,0,0,0,0,0,0,0,0,0,0,0,0,0,0,0,0,0,0,0,0,0,0],"sum_hessian":[1.4848805E2,4.5311405E1,1.0317664E2,3.8906746E1,6.404661E0,8.7324776E1,1.58518715E1,2.1548016E0,4.24986E0,4.741932E1,3.9905457E1,1.5765204E1,3.1654114E1,2.4837205E0,3.7421734E1,1.3182773E1,2.5824313E0,1.7989738E0,2.985514E1,1.1717696E0,1.3119509E0,2.217179E0,1.0965593E1,1.6275778E0,2.8227562E1],"tree_param":{"num_deleted":"0","num_feature":"21","num_nodes":"25","size_leaf_vector":"1"}},{"base_weights":[-4.36786E-2,-8.5020083E-1,3.4782904E-1,-5.7020586E-2,6.4487845E-1,6.4470494E-1,-5.539893E-2,-1.4160006E-2,5.170485E-2,-6.909443E-1,7.498025E-1,-5.9283555E-2,-5.2175503E-2,5.323416E-1,1.1231853E0,-3.4337323E-2,3.420567E-2,-2.1559493E-1,8.762851E-1,1.4633605E-2,5.753548E-2,-6.1873704E-2,2.903068E-2,2.597713E-2,5.2901268E-2],"categories":[],"categories_nodes":[],"categories_segments":[],"categories_sizes":[],"default_left":[0,0,0,0,0,0,0,0,0,0,0,0,0,0,0,0,0,0,0,0,0,0,0,0,0],"id":25,"left_children":[1,3,5,-1,7,9,-1,-1,-1,11,13,15,-1,17,19,-1,-1,21,23,-1,-1,-1,-1,-1,-1],"loss_changes":[4.398575E1,2.0480373E1,4.1279133E1,0E0,3.195752E0,1.1550308E1,0E0,0E0,0E0,1.330792E0,5.3568916E0,2.0092592E0,0E0,1.2600411E1,2.59655E-1,0E0,0E0,1.3736938E1,1.6058445E0,0E0,0E0,0E0,0E0,0E0,0E0],"parents":[2147483647,0,0,1,1,2,2,4,4,5,5,9,9,10,10,11,11,13,13,14,14,17,17,18,18],"right_children":[2,4,6,-1,8,10,-1,-1,-1,12,14,16,-1,18,20,-1,-1,22,24,-1,-1,-1,-1,-1,-1],"split_conditions":[7.5609756E-1,1.1747174E0,1.0434783E0,-5.7020586E-2,1.04166664E-1,1.3E1,-5.539893E-2,-1.4160006E-2,5.170485E-2,1.768689E2,8.389017E0,9.285714E-1,-5.2175503E-2,8.75E-1,1.1764706E-1,-3.4337323E-2,3.420567E-2,1.3471231E-1,9.4736844E-1,1.4633605E-2,5.753548E-2,-6.1873704E-2,2.903068E-2,2.597713E-2,5.2901268E-2],"split_indices":[3,16,3,0,5,1,0,0,0,14,19,3,0,3,4,0,0,17,3,0,0,0,0,0,0],"split_type":[0,0,0,0,0,0,0,0,0,0,0,0,0,0,0,0,0,0,0,0,0,0,0,0,0],"sum_hessian":[1.3736484E2,4.4506977E1,9.285786E1,3.747073E1,7.0362463E0,7.759203E1,1.5265822E1,2.1594644E0,4.8767824E0,5.2534447E0,7.2338585E1,2.3003182E0,2.9531264E0,4.72472E1,2.5091385E1,1.2887532E0,1.011565E0,1.500047E1,3.224673E1,1.178063E0,2.3913322E1,6.3265576E0,8.673912E0,1.2185742E1,2.006099E1],"tree_param":{"num_deleted":"0","num_feature":"21","num_nodes":"25","size_leaf_vector":"1"}},{"base_weights":[1.0216847E-2,-6.145791E-1,4.926299E-1,-5.5616092E-2,-2.7506006E-1,-1.1778452E-1,6.862451E-1,-4.142174E-2,-5.3967696E-2,3.6928153E-1,-8.5736185E-1,-4.3054927E-2,7.794405E-1,-6.9891185E-1,1.7320807E-1,-3.2222232E-1,7.495553E-1,-5.2297104E-2,3.0617067E-3,5.572586E-1,1.0055369E0,-4.969882E-2,9.01914E-3,3.0405077E-1,-4.249208E-2,2.64475E-2,-5.340165E-2,3.223041E-3,8.750665E-1,2.5510615E-1,7.6538897E-1,4.0930207E-3,5.2283507E-2,-2.4447974E-2,2.1337762E-2,5.0290752E-2,1.7601721E-2,-2.444271E-2,4.2276997E-2,2.5300588E-3,4.2728394E-2],"categories":[],"categories_nodes":[],"categories_segments":[],"categories_sizes":[],"default_left":[0,0,0,0,0,0,0,0,0,0,0,0,0,0,0,0,0,0,0,0,0,0,0,0,0,0,0,0,0,0,0,0,0,0,0,0,0,0,0,0,0],"id":26,"left_children":[1,3,5,-1,7,9,11,13,-1,15,17,-1,19,21,23,25,27,-1,-1,29,31,-1,-1,33,-1,-1,-1,-1,35,37,39,-1,-1,-1,-1,-1,-1,-1,-1,-1,-1],"loss_changes":[4.1295273E1,9.7831955E0,9.216698E0,0E0,6.874358E0,7.329458E0,9.155218E0,4.2941766E0,0E0,3.5119123E0,1.4552984E0,0E0,2.253582E0,2.1190193E0,3.3499575E0,3.8101108E0,6.594162E-1,0E0,0E0,1.7225199E0,8.975105E-1,0E0,0E0,2.2728503E0,0E0,0E0,0E0,0E0,1.21628284E-1,6.535842E0,1.0759325E0,0E0,0E0,0E0,0E0,0E0,0E0,0E0,0E0,0E0,0E0],"parents":[2147483647,0,0,1,1,2,2,4,4,5,5,6,6,7,7,9,9,10,10,12,12,13,13,14,14,15,15,16,16,19,19,20,20,23,23,28,28,29,29,30,30],"right_children":[2,4,6,-1,8,10,12,14,-1,16,18,-1,20,22,24,26,28,-1,-1,30,32,-1,-1,34,-1,-1,-1,-1,36,38,40,-1,-1,-1,-1,-1,-1,-1,-1,-1,-1],"split_conditions":[2E1,1.3157895E-1,1.1940298E-1,-5.5616092E-2,2.2222222E-1,1.5151516E-1,6.701919E-1,1.2E1,-5.3967696E-2,2.4E1,1.15384616E-1,-4.3054927E-2,8.389017E0,1.8518518E-1,2.1E1,1.0138723E-1,7.169598E0,-5.2297104E-2,3.0617067E-3,1.3953489E-1,1.2903225E-1,-4.969882E-2,9.01914E-3,1E0,-4.249208E-2,2.64475E-2,-5.340165E-2,3.223041E-3,1.4705883E-1,8.401598E-1,1.5E-1,4.0930207E-3,5.2283507E-2,-2.4447974E-2,2.1337762E-2,5.0290752E-2,1.7601721E-2,-2.444271E-2,4.2276997E-2,2.5300588E-3,4.2728394E-2],"split_indices":[1,5,5,0,5,4,15,1,0,1,5,0,19,5,0,17,18,0,0,5,4,0,0,12,0,0,0,0,4,16,4,0,0,0,0,0,0,0,0,0,0],"split_type":[0,0,0,0,0,0,0,0,0,0,0,0,0,0,0,0,0,0,0,0,0,0,0,0,0,0,0,0,0,0,0,0,0,0,0,0,0,0,0,0,0],"sum_hessian":[1.3500264E2,5.8701538E1,7.63011E1,2.2881117E1,3.582042E1,1.8468079E1,5.7833023E1,2.857206E1,7.2483606E0,1.1436795E1,7.031285E0,2.817289E0,5.501573E1,6.476327E0,2.2095734E1,4.112014E0,7.324781E0,5.71866E0,1.3126248E0,2.9495543E1,2.552019E1,4.7514577E0,1.7248693E0,2.021335E1,1.8823824E0,2.056155E0,2.0558589E0,1.3685006E0,5.9562807E0,1.2938228E1,1.6557316E1,1.1892405E0,2.4330948E1,2.308594E0,1.7904757E1,4.0266457E0,1.9296349E0,5.8009443E0,7.137283E0,2.0104606E0,1.4546855E1],"tree_param":{"num_deleted":"0","num_feature":"21","num_nodes":"41","size_leaf_vector":"1"}},{"base_weights":[1.2861577E-2,-7.881876E-1,3.9232048E-1,-5.615383E-2,6.894984E-1,6.823868E-1,-5.4565877E-2,4.676574E-2,5.0808784E-2,3.5950536E-1,1.0318044E0,4.0738985E-2,-4.670463E-2,-6.3448197E-1,7.733305E-1,1.6983237E-2,1.0657748E0,-5.9117913E-2,5.2551657E-1,2.62268E-1,1.02716E0,2.1870911E-2,1.0934038E0,-6.7202225E-3,4.291876E-2,-3.2798767E-2,4.73455E-2,8.504405E-3,5.4392584E-2,1.7297661E-2,5.548025E-2],"categories":[],"categories_nodes":[],"categories_segments":[],"categories_sizes":[],"default_left":[0,0,0,0,0,0,0,0,0,0,0,0,0,0,0,0,0,0,0,0,0,0,0,0,0,0,0,0,0,0,0],"id":27,"left_children":[1,3,5,-1,7,9,-1,11,-1,13,15,-1,-1,17,19,-1,21,-1,23,25,27,-1,29,-1,-1,-1,-1,-1,-1,-1,-1],"loss_changes":[4.117683E1,2.232504E1,4.0293888E1,0E0,1.7719707E0,8.371029E0,0E0,3.7505584E0,0E0,1.7687332E1,5.003929E-1,0E0,0E0,8.780594E0,3.6181946E0,0E0,1.2059021E-1,0E0,1.172106E0,7.717491E0,8.386879E-1,0E0,8.178711E-3,0E0,0E0,0E0,0E0,0E0,0E0,0E0,0E0],"parents":[2147483647,0,0,1,1,2,2,4,4,5,5,7,7,9,9,10,10,13,13,14,14,16,16,18,18,19,19,20,20,22,22],"right_children":[2,4,6,-1,8,10,-1,12,-1,14,16,-1,-1,18,20,-1,22,-1,24,26,28,-1,30,-1,-1,-1,-1,-1,-1,-1,-1],"split_conditions":[7.5609756E-1,1.1747174E0,1.0434783E0,-5.615383E-2,1.04166664E-1,1.1993893E0,-5.4565877E-2,1.7633726E-1,5.0808784E-2,8.75E-1,2.5442188E1,4.0738985E-2,-4.670463E-2,8.401598E-1,9.4736844E-1,1.6983237E-2,7.659575E-1,-5.9117913E-2,8.095238E-1,3.4266362E0,1.1E1,2.1870911E-2,2.1E1,-6.7202225E-3,4.291876E-2,-3.2798767E-2,4.73455E-2,8.504405E-3,5.4392584E-2,1.7297661E-2,5.548025E-2],"split_indices":[3,16,3,0,5,20,0,17,0,3,13,0,0,16,3,0,3,0,3,18,1,0,1,0,0,0,0,0,0,0,0],"split_type":[0,0,0,0,0,0,0,0,0,0,0,0,0,0,0,0,0,0,0,0,0,0,0,0,0,0,0,0,0,0,0],"sum_hessian":[1.3344829E2,4.2548977E1,9.089931E1,3.4883324E1,7.665654E0,7.648564E1,1.4413662E1,2.9684422E0,4.697212E0,4.080677E1,3.567887E1,1.7598197E0,1.2086225E0,1.1838374E1,2.8968395E1,2.1837747E0,3.34951E1,8.027601E0,3.8107736E0,1.0287901E1,1.8680494E1,2.1196818E0,3.1375416E1,1.4775716E0,2.333202E0,4.4121656E0,5.8757358E0,1.4867965E0,1.7193699E1,1.1398821E0,3.0235535E1],"tree_param":{"num_deleted":"0","num_feature":"21","num_nodes":"31","size_leaf_vector":"1"}},{"base_weights":[2.7963214E-2,-8.0538535E-1,3.9736715E-1,-5.5625703E-2,6.2678105E-1,6.595706E-1,-5.3816926E-2,4.363287E-2,4.853034E-2,3.3872145E-1,9.8632455E-1,4.0043823E-2,-4.5646947E-2,-7.3298144E-1,8.893379E-1,2.3663424E-1,5.2696127E-2,-1.0768926E0,2.4714682E-1,-4.4493093E-3,9.747797E-1,-4.3064382E-2,4.3009643E-2,-6.2400013E-2,-4.1356604E-3,-1.4209889E-2,3.788523E-2,6.2824446E-3,5.148923E-2],"categories":[],"categories_nodes":[],"categories_segments":[],"categories_sizes":[],"default_left":[0,0,0,0,0,0,0,0,0,0,0,0,0,0,0,0,0,0,0,0,0,0,0,0,0,0,0,0,0],"id":28,"left_children":[1,3,5,-1,7,9,-1,11,-1,13,15,-1,-1,17,19,21,-1,23,25,-1,27,-1,-1,-1,-1,-1,-1,-1,-1],"loss_changes":[4.0284817E1,1.8380957E1,3.572619E1,0E0,1.5092831E0,7.796322E0,0E0,3.5688026E0,0E0,2.4640734E1,1.6712456E0,0E0,0E0,5.101737E0,2.3693085E0,3.76975E0,0E0,1.7350197E0,1.4468318E0,0E0,1.0474739E0,0E0,0E0,0E0,0E0,0E0,0E0,0E0,0E0],"parents":[2147483647,0,0,1,1,2,2,4,4,5,5,7,7,9,9,10,10,13,13,14,14,15,15,17,17,18,18,20,20],"right_children":[2,4,6,-1,8,10,-1,12,-1,14,16,-1,-1,18,20,22,-1,24,26,-1,28,-1,-1,-1,-1,-1,-1,-1,-1],"split_conditions":[7.5609756E-1,1.1747174E0,1.0434783E0,-5.5625703E-2,1.04166664E-1,1.338304E-1,-5.3816926E-2,1.3636364E-1,4.853034E-2,9.130435E-1,7.692308E-1,4.0043823E-2,-4.5646947E-2,7.4528623E0,6.737977E-2,3.9E1,5.2696127E-2,2.9877256E1,8.636364E-1,-4.4493093E-3,1.3E1,-4.3064382E-2,4.3009643E-2,-6.2400013E-2,-4.1356604E-3,-1.4209889E-2,3.788523E-2,6.2824446E-3,5.148923E-2],"split_indices":[3,16,3,0,5,17,0,4,0,3,3,0,0,19,17,0,0,13,3,0,1,0,0,0,0,0,0,0,0],"split_type":[0,0,0,0,0,0,0,0,0,0,0,0,0,0,0,0,0,0,0,0,0,0,0,0,0,0,0,0,0],"sum_hessian":[1.2882228E2,3.9202972E1,8.96193E1,3.2464207E1,6.738767E0,7.65516E1,1.3067709E1,2.917472E0,3.8212953E0,3.9652393E1,3.68992E1,1.7192439E0,1.1982279E0,1.3345643E1,2.6306751E1,3.4241815E0,3.3475018E1,9.806111E0,3.5395322E0,2.1096306E0,2.419712E1,1.1022191E0,2.3219624E0,8.14839E0,1.6577216E0,1.9517143E0,1.5878179E0,1.6718868E0,2.2525234E1],"tree_param":{"num_deleted":"0","num_feature":"21","num_nodes":"29","size_leaf_vector":"1"}},{"base_weights":[2.3352735E-2,-5.999525E-1,4.80255E-1,-5.6460973E-2,1.0613444E-1,5.9332937E-1,-4.7768913E-2,8.2763666E-1,-5.1487844E-2,-1.6908456E-1,8.948042E-1,-1.2550431E-2,9.635379E-1,-5.5480488E-2,6.905479E-1,4.7651258E-1,9.929074E-1,1.3278738E-2,1.0342358E0,-1.6969894E-1,9.2956716E-1,-5.1134604E-1,8.2759416E-1,8.932552E-4,1.0273658E0,1.9287217E-2,5.4405004E-2,-3.1471606E-2,2.0106487E-2,6.666664E-3,5.2618947E-2,-4.6724502E-2,1.0100695E-2,4.8868757E-2,2.036236E-2,5.3322703E-2,7.2573237E-3],"categories":[],"categories_nodes":[],"categories_segments":[],"categories_sizes":[],"default_left":[0,0,0,0,0,0,0,0,0,0,0,0,0,0,0,0,0,0,0,0,0,0,0,0,0,0,0,0,0,0,0,0,0,0,0,0,0],"id":29,"left_children":[1,3,5,-1,7,9,-1,11,-1,13,15,-1,17,-1,19,21,23,-1,25,27,29,31,33,-1,35,-1,-1,-1,-1,-1,-1,-1,-1,-1,-1,-1,-1],"loss_changes":[3.6378468E1,2.031761E1,1.2527491E1,0E0,2.0578426E1,1.5991745E1,0E0,2.4808855E0,0E0,1.7235575E1,1.5600586E0,0E0,4.0489388E-1,0E0,2.4727955E0,4.3545628E0,1.2990837E0,0E0,5.0115585E-3,1.119004E0,7.363777E-1,1.272547E0,1.5256214E-1,0E0,1.1506195E0,0E0,0E0,0E0,0E0,0E0,0E0,0E0,0E0,0E0,0E0,0E0,0E0],"parents":[2147483647,0,0,1,1,2,2,4,4,5,5,7,7,9,9,10,10,12,12,14,14,15,15,16,16,18,18,19,19,20,20,21,21,22,22,24,24],"right_children":[2,4,6,-1,8,10,-1,12,-1,14,16,-1,18,-1,20,22,24,-1,26,28,30,32,34,-1,36,-1,-1,-1,-1,-1,-1,-1,-1,-1,-1,-1,-1],"split_conditions":[2E1,9.285714E-1,1.0434783E0,-5.6460973E-2,1.0434783E0,7.692308E-1,-4.7768913E-2,2.8013044E1,-5.1487844E-2,3E1,9.4650936E-1,-1.2550431E-2,1.3E1,-5.5480488E-2,1.1747174E0,8.8235295E-1,2.5442188E1,1.3278738E-2,1E0,7E-1,6.25E-1,1.6129032E-1,7.702624E-1,8.932552E-4,1.768689E2,1.9287217E-2,5.4405004E-2,-3.1471606E-2,2.0106487E-2,6.666664E-3,5.2618947E-2,-4.6724502E-2,1.0100695E-2,4.8868757E-2,2.036236E-2,5.3322703E-2,7.2573237E-3],"split_indices":[1,3,3,0,3,3,0,13,0,1,20,0,0,0,16,3,13,0,12,3,3,4,16,0,14,0,0,0,0,0,0,0,0,0,0,0,0],"split_type":[0,0,0,0,0,0,0,0,0,0,0,0,0,0,0,0,0,0,0,0,0,0,0,0,0,0,0,0,0,0,0,0,0,0,0,0,0],"sum_hessian":[1.25726326E2,5.3046837E1,7.267949E1,2.997728E1,2.3069557E1,6.7916885E1,4.762606E0,1.4274178E1,8.795381E0,1.9370089E1,4.8546795E1,1.5024292E0,1.2771749E1,9.110969E0,1.0259119E1,1.0335527E1,3.8211266E1,1.6121659E0,1.1159582E1,2.2937553E0,7.965364E0,2.5903687E0,7.7451587E0,1.3561381E0,3.685513E1,1.4817436E0,9.677838E0,1.2156632E0,1.0780922E0,1.3431165E0,6.6222477E0,1.4313504E0,1.1590184E0,4.7333694E0,3.0117896E0,3.5091507E1,1.7636212E0],"tree_param":{"num_deleted":"0","num_feature":"21","num_nodes":"37","size_leaf_vector":"1"}},{"base_weights":[1.854565E-2,-5.4090774E-1,4.4468805E-1,-9.7970426E-1,-1.4466333E-1,-3.5180032E-1,5.3747046E-1,-1.9741042E-1,-5.54759E-2,-5.285449E-2,1.640064E-1,5.355298E-1,-5.029371E-2,2.4316369E-1,8.731106E-1,-4.5528892E-2,3.8479462E-2,2.743482E-1,-3.7359193E-2,-3.0837837E-4,4.0052097E-2,-3.8587697E-2,3.307926E-1,6.844036E-4,9.0808874E-1,-3.289251E-2,3.7050417E-1,-2.7692118E-1,5.3598416E-1,5.79303E-1,4.943366E-2,2.2555921E-2,-2.8726999E-2,2.1545934E-2,-3.964311E-2,2.999486E-2,-1.6190862E-2,-2.2277613E-3,4.769738E-2],"categories":[],"categories_nodes":[],"categories_segments":[],"categories_sizes":[],"default_left":[0,0,0,0,0,0,0,0,0,0,0,0,0,0,0,0,0,0,0,0,0,0,0,0,0,0,0,0,0,0,0,0,0,0,0,0,0,0,0],"id":30,"left_children":[1,3,5,7,9,11,13,15,-1,-1,17,19,-1,21,23,-1,-1,25,-1,-1,-1,-1,27,-1,29,-1,31,33,35,37,-1,-1,-1,-1,-1,-1,-1,-1,-1],"loss_changes":[2.9777815E1,9.250672E0,5.426751E0,2.3665104E0,8.498416E0,5.181224E0,6.097416E0,4.038588E0,0E0,0E0,2.5127368E0,5.869956E-1,0E0,3.4053624E0,8.730583E-1,0E0,0E0,2.1444895E0,0E0,0E0,0E0,0E0,4.301404E0,0E0,1.7677689E-1,0E0,1.7723582E0,3.6525762E0,1.581172E0,1.9085176E0,0E0,0E0,0E0,0E0,0E0,0E0,0E0,0E0,0E0],"parents":[2147483647,0,0,1,1,2,2,3,3,4,4,5,5,6,6,7,7,10,10,11,11,13,13,14,14,17,17,22,22,24,24,26,26,27,27,28,28,29,29],"right_children":[2,4,6,8,10,12,14,16,-1,-1,18,20,-1,22,24,-1,-1,26,-1,-1,-1,-1,28,-1,30,-1,32,34,36,38,-1,-1,-1,-1,-1,-1,-1,-1,-1],"split_conditions":[2E1,1.3793103E-1,1.0526316E-1,5.222277E-1,3.4782776E-1,1.3636364E-1,8.389017E0,4.731643E-1,-5.54759E-2,-5.285449E-2,2.3529412E-1,1.3065593E1,-5.029371E-2,2E1,1.2903225E-1,-4.5528892E-2,3.8479462E-2,1.3513513E-1,-3.7359193E-2,-3.0837837E-4,4.0052097E-2,-3.8587697E-2,1.3043478E-1,6.844036E-4,1.1904762E-1,-3.289251E-2,2.992316E1,1.388889E-1,1.463174E0,3.5E1,4.943366E-2,2.2555921E-2,-2.8726999E-2,2.1545934E-2,-3.964311E-2,2.999486E-2,-1.6190862E-2,-2.2277613E-3,4.769738E-2],"split_indices":[1,5,5,15,15,4,19,16,0,0,4,19,0,0,4,0,0,4,0,0,0,0,5,0,5,0,13,4,20,1,0,0,0,0,0,0,0,0,0],"split_type":[0,0,0,0,0,0,0,0,0,0,0,0,0,0,0,0,0,0,0,0,0,0,0,0,0,0,0,0,0,0,0,0,0,0,0,0,0,0,0],"sum_hessian":[1.2289444E2,5.301947E1,6.987497E1,2.4460129E1,2.8559343E1,6.9991612E0,6.287581E1,3.839993E0,2.0620136E1,6.606347E0,2.1952997E1,3.0469053E0,3.9522557E0,3.4419483E1,2.8456324E1,2.243642E0,1.5963507E0,2.0205141E1,1.747856E0,1.3234916E0,1.7234138E0,2.1151195E0,3.2304367E1,1.1672808E0,2.7289043E1,1.3430688E0,1.8862072E1,8.065949E0,2.4238417E1,6.9837985E0,2.0305244E1,1.7861128E1,1.0009432E0,3.4700465E0,4.5959034E0,2.2842695E1,1.3957204E0,2.9509497E0,4.032849E0],"tree_param":{"num_deleted":"0","num_feature":"21","num_nodes":"39","size_leaf_vector":"1"}},{"base_weights":[7.844592E-3,-3.6137596E-1,6.7403877E-1,-9.309536E-1,-3.375208E-2,-5.9134287E-1,7.548121E-1,-1.0693103E0,8.354926E-2,-5.1187903E-2,1.3592978E-1,4.4886223E-3,-4.7988974E-2,-8.424386E-2,8.693594E-1,-5.633387E-2,-2.6205964E-3,3.837473E-2,-3.628874E-2,2.848137E-1,-5.3695494E-1,-4.0673375E-2,3.5592008E-1,4.9185004E-2,4.7580662E-1,-4.1362584E-1,3.772051E-1,-4.6047103E-2,6.970118E-3,3.937816E-2,-1.018359E-2,8.4410655E-1,-3.5426486E-2,2.8415397E-2,-4.20937E-2,2.2701798E-2,-2.9900039E-2,3.456034E-2,-3.954959E-2,4.6067502E-2,9.64634E-3],"categories":[],"categories_nodes":[],"categories_segments":[],"categories_sizes":[],"default_left":[0,0,0,0,0,0,0,0,0,0,0,0,0,0,0,0,0,0,0,0,0,0,0,0,0,0,0,0,0,0,0,0,0,0,0,0,0,0,0,0,0],"id":31,"left_children":[1,3,5,7,9,11,13,15,17,-1,19,-1,-1,21,23,-1,-1,-1,-1,25,27,-1,29,-1,31,33,35,-1,37,-1,-1,39,-1,-1,-1,-1,-1,-1,-1,-1,-1],"loss_changes":[3.02958E1,1.4759202E1,4.935011E0,4.146593E0,8.76614E0,8.8814914E-1,4.083065E0,1.4290466E0,2.9906447E0,0E0,4.6334567E0,0E0,0E0,2.1907294E0,1.1877995E0,0E0,0E0,0E0,0E0,2.561339E0,1.771173E0,0E0,1.2206079E0,0E0,5.0563517E0,2.510224E0,2.7772474E0,0E0,2.9977238E0,0E0,0E0,2.3735619E-1,0E0,0E0,0E0,0E0,0E0,0E0,0E0,0E0,0E0],"parents":[2147483647,0,0,1,1,2,2,3,3,4,4,5,5,6,6,7,7,8,8,10,10,13,13,14,14,19,19,20,20,22,22,24,24,25,25,26,26,28,28,31,31],"right_children":[2,4,6,8,10,12,14,16,18,-1,20,-1,-1,22,24,-1,-1,-1,-1,26,28,-1,30,-1,32,34,36,-1,38,-1,-1,40,-1,-1,-1,-1,-1,-1,-1,-1,-1],"split_conditions":[2.5E1,1.3043478E-1,8.4353137E-1,1.0345571E1,3.4782776E-1,1.337007E-1,1.0526316E-1,2.9925278E1,9.4640183E-1,-5.1187903E-2,2.9801353E1,4.4886223E-3,-4.7988974E-2,1.1429203E0,1.421811E2,-5.633387E-2,-2.6205964E-3,3.837473E-2,-3.628874E-2,1.2E1,6.701919E-1,-4.0673375E-2,9.4339624E-2,4.9185004E-2,5.678796E0,2.3E1,2.9E1,-4.6047103E-2,2.5950503E0,3.937816E-2,-1.018359E-2,2.985919E1,-3.5426486E-2,2.8415397E-2,-4.20937E-2,2.2701798E-2,-2.9900039E-2,3.456034E-2,-3.954959E-2,4.6067502E-2,9.64634E-3],"split_indices":[1,5,15,19,15,17,5,13,15,0,13,0,0,16,14,0,0,0,0,1,15,0,5,0,18,9,0,0,18,0,0,13,0,0,0,0,0,0,0,0,0],"split_type":[0,0,0,0,0,0,0,0,0,0,0,0,0,0,0,0,0,0,0,0,0,0,0,0,0,0,0,0,0,0,0,0,0,0,0,0,0,0,0,0,0],"sum_hessian":[1.211771E2,7.826072E1,4.291639E1,2.790538E1,5.0355335E1,2.1958337E0,4.0720554E1,2.4508867E1,3.3965127E0,6.631363E0,4.3723972E1,1.0363371E0,1.1594965E0,4.923148E0,3.5797405E1,2.3097874E1,1.410994E0,1.8688583E0,1.5276544E0,3.627452E1,7.4494514E0,1.5338701E0,3.389278E0,2.6576477E1,9.220929E0,3.8316896E0,3.2442833E1,3.9604254E0,3.489026E0,1.6833962E0,1.7058816E0,7.2527685E0,1.9681605E0,1.0642984E0,2.7673912E0,3.0568905E1,1.8739274E0,1.9503897E0,1.5386364E0,6.1127725E0,1.1399959E0],"tree_param":{"num_deleted":"0","num_feature":"21","num_nodes":"41","size_leaf_vector":"1"}},{"base_weights":[-1.3567077E-2,-6.320181E-1,4.2365536E-1,-5.524481E-2,4.1512225E-2,-2.7015552E-1,6.844004E-1,-5.2449625E-2,7.0742863E-1,-5.5020344E-2,5.5242926E-1,8.6717063E-1,-4.683177E-2,8.8694906E-1,-3.1164957E-2,-2.7789718E-1,8.190924E-1,5.349827E-1,9.770628E-1,-6.9152364E-3,5.3048223E-2,1.9426007E-2,-3.7998036E-2,2.9529592E-1,4.888726E-2,-3.9110196E-1,7.5929075E-1,1.5264527E-4,1.0184448E0,4.9182596E-3,1.8563477E-2,-4.0615924E-2,1.3357145E-2,8.799519E-3,4.2429157E-2,5.231119E-2,1.1157236E-2],"categories":[],"categories_nodes":[],"categories_segments":[],"categories_sizes":[],"default_left":[0,0,0,0,0,0,0,0,0,0,0,0,0,0,0,0,0,0,0,0,0,0,0,0,0,0,0,0,0,0,0,0,0,0,0,0,0],"id":32,"left_children":[1,3,5,-1,7,9,11,-1,13,-1,15,17,-1,19,-1,21,23,25,27,-1,-1,-1,-1,29,-1,31,33,-1,35,-1,-1,-1,-1,-1,-1,-1,-1],"loss_changes":[3.0864756E1,1.5099916E1,1.228554E1,0E0,1.5600049E1,1.3575888E1,1.5300283E1,0E0,3.730197E0,0E0,2.4869397E0,1.1004677E0,0E0,2.3112211E0,0E0,1.3319821E0,3.741603E-1,3.0521004E0,1.2948189E0,0E0,0E0,0E0,0E0,1.2660146E-2,0E0,1.1170406E0,4.244728E-1,0E0,4.4890594E-1,0E0,0E0,0E0,0E0,0E0,0E0,0E0,0E0],"parents":[2147483647,0,0,1,1,2,2,4,4,5,5,6,6,8,8,10,10,11,11,13,13,15,15,16,16,17,17,18,18,23,23,25,25,26,26,28,28],"right_children":[2,4,6,-1,8,10,12,-1,14,-1,16,18,-1,20,-1,22,24,26,28,-1,-1,-1,-1,30,-1,32,34,-1,36,-1,-1,-1,-1,-1,-1,-1,-1],"split_conditions":[2E1,9.285714E-1,7.692308E-1,-5.524481E-2,4.4562835E-1,3E1,1.0434783E0,-5.2449625E-2,1.0434783E0,-5.5020344E-2,6.2857145E-1,6.1779003E0,-4.683177E-2,1.3461539E-1,-3.1164957E-2,1.617E1,3.5E1,8.4210527E-1,2.5442188E1,-6.9152364E-3,5.3048223E-2,1.9426007E-2,-3.7998036E-2,2.9083078E1,4.888726E-2,2.4892166E2,2.8602835E1,1.5264527E-4,1.8210611E2,4.9182596E-3,1.8563477E-2,-4.0615924E-2,1.3357145E-2,8.799519E-3,4.2429157E-2,5.231119E-2,1.1157236E-2],"split_indices":[1,3,3,0,15,1,3,0,3,0,3,19,0,5,0,14,1,3,13,0,0,0,0,13,0,14,13,0,14,0,0,0,0,0,0,0,0],"split_type":[0,0,0,0,0,0,0,0,0,0,0,0,0,0,0,0,0,0,0,0,0,0,0,0,0,0,0,0,0,0,0,0,0,0,0,0,0],"sum_hessian":[1.121543E2,4.62658E1,6.58885E1,2.6805502E1,1.9460299E1,1.798814E1,4.7900352E1,7.159932E0,1.2300366E1,8.784264E0,9.2038765E0,4.346479E1,4.4355636E0,1.113209E1,1.1682774E0,2.2270951E0,6.9767814E0,1.2263195E1,3.1201595E1,1.6450565E0,9.487033E0,1.016251E0,1.2108443E0,2.287107E0,4.6896744E0,2.2461371E0,1.0017057E1,1.3153695E0,2.9886227E1,1.275533E0,1.0115741E0,1.2269403E0,1.0191969E0,1.7242676E0,8.29279E0,2.8572699E1,1.3135264E0],"tree_param":{"num_deleted":"0","num_feature":"21","num_nodes":"37","size_leaf_vector":"1"}},{"base_weights":[3.924312E-2,-4.91203E-1,4.2014086E-1,-5.218476E-2,-1.9530003E-1,-5.285661E-1,5.173574E-1,-5.0809927E-2,1.2063665E-2,3.272965E-1,-4.94064E-2,2.2677106E-1,8.371869E-1,1.2027706E-1,-3.9978813E-2,2.0167457E-2,4.88939E-3,-3.7709262E-2,3.1380507E-1,9.599193E-5,8.7111086E-1,-2.2555698E-2,6.187146E-1,-1.9597808E-1,5.057335E-1,4.9958702E-2,5.024279E-1,-4.3227818E-2,1.4032679E-2,4.0470775E-2,-1.3584042E-3,2.4549587E-2,-3.878936E-2,2.8568873E-2,-1.6564555E-2,-7.0050745E-3,4.4609297E-2],"categories":[],"categories_nodes":[],"categories_segments":[],"categories_sizes":[],"default_left":[0,0,0,0,0,0,0,0,0,0,0,0,0,0,0,0,0,0,0,0,0,0,0,0,0,0,0,0,0,0,0,0,0,0,0,0,0],"id":33,"left_children":[1,3,5,-1,7,9,11,-1,13,15,-1,17,19,21,-1,-1,-1,-1,23,-1,25,27,29,31,33,-1,35,-1,-1,-1,-1,-1,-1,-1,-1,-1,-1],"loss_changes":[2.348524E1,7.744055E0,6.5082226E0,0E0,5.6108947E0,2.9893255E0,5.555788E0,0E0,2.489134E0,1.5001446E-2,0E0,3.119276E0,8.2172585E-1,1.7873323E0,0E0,0E0,0E0,0E0,3.2024748E0,0E0,8.163357E-1,5.4319224E0,7.09692E-1,4.1234756E0,1.470736E0,0E0,2.4314523E0,0E0,0E0,0E0,0E0,0E0,0E0,0E0,0E0,0E0,0E0],"parents":[2147483647,0,0,1,1,2,2,4,4,5,5,6,6,8,8,9,9,11,11,12,12,13,13,18,18,20,20,21,21,22,22,23,23,24,24,26,26],"right_children":[2,4,6,-1,8,10,12,-1,14,16,-1,18,20,22,-1,-1,-1,-1,24,-1,26,28,30,32,34,-1,36,-1,-1,-1,-1,-1,-1,-1,-1,-1,-1],"split_conditions":[3.0445225E0,1.3157895E-1,1.0526316E-1,-5.218476E-2,3.4782776E-1,1.3636364E-1,8.389017E0,-5.0809927E-2,2.3529412E-1,6.3E1,-4.94064E-2,2E1,1.2903225E-1,4.166036E2,-3.9978813E-2,2.0167457E-2,4.88939E-3,-3.7709262E-2,1.3043478E-1,9.599193E-5,1.6666667E-1,5.517909E-1,1.7857143E-1,1.388889E-1,1.463174E0,4.9958702E-2,1.2903225E-1,-4.3227818E-2,1.4032679E-2,4.0470775E-2,-1.3584042E-3,2.4549587E-2,-3.878936E-2,2.8568873E-2,-1.6564555E-2,-7.0050745E-3,4.4609297E-2],"split_indices":[7,5,5,0,15,4,19,0,4,9,0,0,4,14,0,0,0,0,5,0,4,20,5,4,20,0,5,0,0,0,0,0,0,0,0,0,0],"split_type":[0,0,0,0,0,0,0,0,0,0,0,0,0,0,0,0,0,0,0,0,0,0,0,0,0,0,0,0,0,0,0,0,0,0,0,0,0],"sum_hessian":[1.14215836E2,4.761567E1,6.660017E1,1.5725957E1,3.1889713E1,5.7779465E0,6.082222E1,5.6444106E0,2.6245302E1,2.1191556E0,3.6587908E0,3.2763462E1,2.8058756E1,2.3909353E1,2.3359492E0,1.0227871E0,1.0963686E0,2.0453227E0,3.0718142E1,1.1363543E0,2.6922401E1,1.9326017E1,4.5833364E0,8.396091E0,2.232205E1,1.8712456E1,8.209945E0,4.6266456E0,1.4699372E1,3.3430784E0,1.2402576E0,3.913033E0,4.483058E0,2.0993034E1,1.3290153E0,3.341655E0,4.8682895E0],"tree_param":{"num_deleted":"0","num_feature":"21","num_nodes":"37","size_leaf_vector":"1"}},{"base_weights":[2.604496E-2,-8.3665293E-1,3.5582313E-1,-5.3958725E-2,6.7892313E-1,6.025967E-1,-5.1955905E-2,5.572177E-3,4.2334415E-2,1.0084302E-1,8.089463E-1,-5.2004375E-2,7.441444E-1,3.0937025E-2,8.951528E-1,-3.6237422E-2,9.1778487E-1,-4.790142E-2,4.331467E-2,1.4828734E-1,9.323626E-1,-1.6025057E-2,1.4737722E-2,1.0463978E-3,5.354042E-2,1.3301248E-3,1.0276524E-2,4.7919072E-2,-2.1385853E-3],"categories":[],"categories_nodes":[],"categories_segments":[],"categories_sizes":[],"default_left":[0,0,0,0,0,0,0,0,0,0,0,0,0,0,0,0,0,0,0,0,0,0,0,0,0,0,0,0,0],"id":34,"left_children":[1,3,5,-1,7,9,-1,-1,-1,11,13,-1,15,17,19,21,23,-1,-1,25,27,-1,-1,-1,-1,-1,-1,-1,-1],"loss_changes":[3.1305138E1,1.1920969E1,2.8010128E1,0E0,3.63837E-1,6.9822807E0,0E0,0E0,0E0,1.6204918E1,3.2051525E0,0E0,1.9339824E0,5.6578465E0,1.0666771E0,4.251949E-1,1.5574789E0,0E0,0E0,1.714795E-2,1.0840454E0,0E0,0E0,0E0,0E0,0E0,0E0,0E0,0E0],"parents":[2147483647,0,0,1,1,2,2,4,4,5,5,9,9,10,10,12,12,13,13,14,14,15,15,16,16,19,19,20,20],"right_children":[2,4,6,-1,8,10,-1,-1,-1,12,14,-1,16,18,20,22,24,-1,-1,26,28,-1,-1,-1,-1,-1,-1,-1,-1],"split_conditions":[7.5E-1,3.583519E0,1.0434783E0,-5.3958725E-2,1.0204082E-1,6.6926557E-1,-5.1955905E-2,5.572177E-3,4.2334415E-2,9.285714E-1,7.692308E-1,-5.2004375E-2,1.3461539E-1,3.9E1,2.5569456E1,3.9915729E0,1.1E1,-4.790142E-2,4.331467E-2,2.5E1,3.390497E2,-1.6025057E-2,1.4737722E-2,1.0463978E-3,5.354042E-2,1.3301248E-3,1.0276524E-2,4.7919072E-2,-2.1385853E-3],"split_indices":[3,7,3,0,5,16,0,0,0,3,3,0,5,0,13,19,0,0,0,0,14,0,0,0,0,0,0,0,0],"split_type":[0,0,0,0,0,0,0,0,0,0,0,0,0,0,0,0,0,0,0,0,0,0,0,0,0,0,0,0,0],"sum_hessian":[1.0798965E2,2.9439377E1,7.855027E1,2.5626574E1,3.8128042E0,6.7225655E1,1.13246155E1,1.2497394E0,2.5630648E0,2.0024166E1,4.720149E1,6.99729E0,1.3026876E1,4.8439507E0,4.235754E1,2.5150318E0,1.0511845E1,2.150801E0,2.69315E0,2.246742E0,4.0110798E1,1.3700744E0,1.1449574E0,1.6978235E0,8.814021E0,1.1873839E0,1.0593581E0,3.90851E1,1.0256978E0],"tree_param":{"num_deleted":"0","num_feature":"21","num_nodes":"29","size_leaf_vector":"1"}},{"base_weights":[-6.4537646E-3,-8.2945675E-1,2.9841563E-1,-5.358258E-2,6.6630095E-1,5.4395795E-1,-5.175047E-2,5.4224445E-3,4.1733954E-2,2.5063467E-1,8.777209E-1,-7.9197335E-1,8.243884E-1,9.686284E-1,2.3521647E-1,-9.7111785E-1,2.7936777E-2,-4.187296E-3,9.10234E-1,6.564007E-1,5.378107E-2,-3.069669E-1,3.841688E-2,1.7822059E-3,-5.7698857E-2,5.2262577E-3,4.8566774E-2,-3.2427948E-2,4.8470806E-2,-3.6417563E-2,1.0197299E-2],"categories":[],"categories_nodes":[],"categories_segments":[],"categories_sizes":[],"default_left":[0,0,0,0,0,0,0,0,0,0,0,0,0,0,0,0,0,0,0,0,0,0,0,0,0,0,0,0,0,0,0],"id":35,"left_children":[1,3,5,-1,7,9,-1,-1,-1,11,13,15,17,19,21,23,-1,-1,25,27,-1,29,-1,-1,-1,-1,-1,-1,-1,-1,-1],"loss_changes":[2.7449999E1,1.1426193E1,2.6705564E1,0E0,3.5446262E-1,6.445545E0,0E0,0E0,0E0,2.3167608E1,1.6089573E0,3.8987598E0,2.0070782E0,2.0356941E-1,1.7443066E0,2.3627806E0,0E0,0E0,1.0166111E0,4.5153584E0,0E0,8.594067E-1,0E0,0E0,0E0,0E0,0E0,0E0,0E0,0E0,0E0],"parents":[2147483647,0,0,1,1,2,2,4,4,5,5,9,9,10,10,11,11,12,12,13,13,14,14,15,15,18,18,19,19,21,21],"right_children":[2,4,6,-1,8,10,-1,-1,-1,12,14,16,18,20,22,24,-1,-1,26,28,-1,30,-1,-1,-1,-1,-1,-1,-1,-1,-1],"split_conditions":[7.3134327E-1,3.5E1,1.0434783E0,-5.358258E-2,1.0204082E-1,1.3412718E-1,-5.175047E-2,5.4224445E-3,4.1733954E-2,9.130435E-1,1.768689E2,1.525182E0,6.737977E-2,8.095238E-1,1.521739E-1,1.3157895E-1,2.7936777E-2,-4.187296E-3,1.3E1,3E1,5.378107E-2,8.095238E-1,3.841688E-2,1.7822059E-3,-5.7698857E-2,5.2262577E-3,4.8566774E-2,-3.2427948E-2,4.8470806E-2,-3.6417563E-2,1.0197299E-2],"split_indices":[3,1,3,0,5,17,0,0,0,3,14,20,17,3,5,4,0,0,1,1,0,3,0,0,0,0,0,0,0,0,0],"split_type":[0,0,0,0,0,0,0,0,0,0,0,0,0,0,0,0,0,0,0,0,0,0,0,0,0,0,0,0,0,0,0],"sum_hessian":[1.0741596E2,2.8569944E1,7.8846016E1,2.4832565E1,3.7373786E0,6.708481E1,1.17612095E1,1.2477033E0,2.489675E0,3.663742E1,3.0447386E1,1.2870038E1,2.3767382E1,2.622872E1,4.218666E0,1.1611091E1,1.2589475E0,2.0547948E0,2.1712587E1,8.515045E0,1.7713675E1,2.301873E0,1.9167931E0,1.9085156E0,9.702575E0,1.7215971E0,1.9990992E1,1.4399467E0,7.075099E0,1.0282325E0,1.2736405E0],"tree_param":{"num_deleted":"0","num_feature":"21","num_nodes":"31","size_leaf_vector":"1"}},{"base_weights":[-1.556039E-2,-5.6613606E-1,3.914159E-1,-1.023273E0,-1.817969E-1,4.0231932E-2,5.9852415E-1,-2.7238295E-4,-5.4638393E-2,-7.253871E-1,2.6919955E-1,5.596473E-1,-9.746973E-1,-2.9756684E-2,6.815789E-1,-4.1966643E-2,-9.055597E-1,-3.5214028E-1,6.541457E-1,-3.2499317E-2,7.239513E-1,-5.504754E-2,-3.1395634E-3,9.782448E-3,7.9789495E-1,-3.4848955E-2,3.654846E-2,-5.1262897E-2,4.6907805E-4,-3.8542356E-2,6.743222E-2,-2.5387872E-3,3.9532386E-2,2.0684229E-1,4.2319514E-2,4.0787E-1,-4.1473467E-2,4.2979965E-1,4.5298856E-2,2.791821E-2,-3.382023E-2,3.2554403E-2,-2.1951191E-2,4.2287435E-2,-1.5207685E-2,4.0987667E-2,-3.2360837E-2],"categories":[],"categories_nodes":[],"categories_segments":[],"categories_sizes":[],"default_left":[0,0,0,0,0,0,0,0,0,0,0,0,0,0,0,0,0,0,0,0,0,0,0,0,0,0,0,0,0,0,0,0,0,0,0,0,0,0,0,0,0,0,0,0,0,0,0],"id":36,"left_children":[1,3,5,7,9,11,13,-1,-1,15,17,19,21,-1,23,25,27,29,31,-1,33,-1,-1,35,37,-1,-1,-1,-1,-1,39,-1,-1,41,-1,43,-1,45,-1,-1,-1,-1,-1,-1,-1,-1,-1],"loss_changes":[2.2941597E1,7.457429E0,4.259342E0,1.3842545E0,6.2873917E0,1.2627805E1,4.0711107E0,0E0,0E0,1.3828177E0,3.653287E0,3.6099186E0,8.6613894E-1,0E0,2.7297802E0,2.2591634E0,1.0043478E0,1.1279376E0,9.240885E-1,0E0,7.353802E-1,0E0,0E0,2.4040372E0,7.982197E-1,0E0,0E0,0E0,0E0,0E0,1.830595E0,0E0,0E0,1.4554533E0,0E0,1.773777E0,0E0,4.1752644E0,0E0,0E0,0E0,0E0,0E0,0E0,0E0,0E0,0E0],"parents":[2147483647,0,0,1,1,2,2,3,3,4,4,5,5,6,6,9,9,10,10,11,11,12,12,14,14,15,15,16,16,17,17,18,18,20,20,23,23,24,24,30,30,33,33,35,35,37,37],"right_children":[2,4,6,8,10,12,14,-1,-1,16,18,20,22,-1,24,26,28,30,32,-1,34,-1,-1,36,38,-1,-1,-1,-1,-1,40,-1,-1,42,-1,44,-1,46,-1,-1,-1,-1,-1,-1,-1,-1,-1],"split_conditions":[2E1,1.3793103E-1,2.5E1,1.4071196E0,2.6268022E0,9.4640183E-1,8.4353137E-1,-2.7238295E-4,-5.4638393E-2,1.8257546E-1,1.4396638E2,6.701919E-1,1.1024485E1,-2.9756684E-2,1.09375E-1,7E0,1.0239187E-1,1.0066985E-1,2.1291556E0,-3.2499317E-2,2.9778621E0,-5.504754E-2,-3.1395634E-3,5.6996113E1,1.2882168E0,-3.4848955E-2,3.654846E-2,-5.1262897E-2,4.6907805E-4,-3.8542356E-2,1.02523126E-1,-2.5387872E-3,3.9532386E-2,2.3E1,4.2319514E-2,1.3636364E-1,-4.1473467E-2,2.977735E1,4.5298856E-2,2.791821E-2,-3.382023E-2,3.2554403E-2,-2.1951191E-2,4.2287435E-2,-1.5207685E-2,4.0987667E-2,-3.2360837E-2],"split_indices":[1,5,1,18,19,15,15,0,0,20,14,15,19,0,5,0,17,17,18,0,18,0,0,14,20,0,0,0,0,0,17,0,0,0,0,4,0,13,0,0,0,0,0,0,0,0,0],"split_type":[0,0,0,0,0,0,0,0,0,0,0,0,0,0,0,0,0,0,0,0,0,0,0,0,0,0,0,0,0,0,0,0,0,0,0,0,0,0,0,0,0,0,0,0,0,0,0],"sum_hessian":[1.0039633E2,4.2503975E1,5.7892353E1,1.8654135E1,2.3849838E1,2.191921E1,3.5973145E1,1.2611821E0,1.7392954E1,1.0538852E1,1.33109865E1,1.4795717E1,7.123493E0,1.939091E0,3.4034054E1,2.455962E0,8.0828905E0,5.124606E0,8.18638E0,1.4158665E0,1.337985E1,6.075089E0,1.0484042E0,5.183024E0,2.8851028E1,1.3825835E0,1.0733783E0,7.041151E0,1.0417389E0,2.1459067E0,2.9786997E0,1.4299381E0,6.7564425E0,3.076386E0,1.0303465E1,3.8641331E0,1.3188908E0,7.678151E0,2.1172878E1,1.9446061E0,1.0340936E0,1.8178973E0,1.2584887E0,2.2763925E0,1.5877407E0,5.812496E0,1.8656551E0],"tree_param":{"num_deleted":"0","num_feature":"21","num_nodes":"47","size_leaf_vector":"1"}},{"base_weights":[3.2493047E-2,-5.765139E-1,4.3324232E-1,-5.3651392E-2,8.7970406E-2,5.4151356E-1,-4.503255E-2,7.215623E-1,-4.775488E-2,-1.8124054E-1,8.251344E-1,-2.5016008E-2,9.4628924E-1,-5.2392956E-2,5.672051E-1,4.5130572E-1,9.181307E-1,1.1785283E-2,5.2191343E-2,-1.334435E-2,8.2245535E-1,-3.3718925E-2,6.496866E-1,-1.1467267E-3,9.5679826E-1,1.587805E-2,4.7532298E-2,-3.3640228E-3,3.919027E-2,4.9914174E-2,1.8437369E-2],"categories":[],"categories_nodes":[],"categories_segments":[],"categories_sizes":[],"default_left":[0,0,0,0,0,0,0,0,0,0,0,0,0,0,0,0,0,0,0,0,0,0,0,0,0,0,0,0,0,0,0],"id":37,"left_children":[1,3,5,-1,7,9,-1,11,-1,13,15,-1,17,-1,19,21,23,-1,-1,-1,25,-1,27,-1,29,-1,-1,-1,-1,-1,-1],"loss_changes":[2.486998E1,1.3444928E1,9.357089E0,0E0,1.2736767E1,1.1921339E1,0E0,3.7439532E0,0E0,1.16235285E1,1.0256882E0,0E0,4.7519684E-1,0E0,2.3001895E0,2.720083E0,1.1938038E0,0E0,0E0,0E0,1.9828892E-1,0E0,9.370935E-1,0E0,3.8707924E-1,0E0,0E0,0E0,0E0,0E0,0E0],"parents":[2147483647,0,0,1,1,2,2,4,4,5,5,7,7,9,9,10,10,12,12,14,14,15,15,16,16,20,20,22,22,24,24],"right_children":[2,4,6,-1,8,10,-1,12,-1,14,16,-1,18,-1,20,22,24,-1,-1,-1,26,-1,28,-1,30,-1,-1,-1,-1,-1,-1],"split_conditions":[2E1,9.285714E-1,1.0434783E0,-5.3651392E-2,1.0434783E0,7.692308E-1,-4.503255E-2,2.8504341E1,-4.775488E-2,3E1,9.4650936E-1,-2.5016008E-2,6.737977E-2,-5.2392956E-2,6.2857145E-1,8.4210527E-1,2.5442188E1,1.1785283E-2,5.2191343E-2,-1.334435E-2,3.5E1,-3.3718925E-2,2.3281833E2,-1.1467267E-3,1.768689E2,1.587805E-2,4.7532298E-2,-3.3640228E-3,3.919027E-2,4.9914174E-2,1.8437369E-2],"split_indices":[1,3,3,0,3,3,0,13,0,1,20,0,17,0,3,3,13,0,0,0,1,0,14,0,14,0,0,0,0,0,0],"split_type":[0,0,0,0,0,0,0,0,0,0,0,0,0,0,0,0,0,0,0,0,0,0,0,0,0,0,0,0,0,0,0],"sum_hessian":[9.987807E1,3.9465267E1,6.04128E1,2.2235611E1,1.7229656E1,5.6426716E1,3.986083E0,1.0910507E1,6.31915E0,1.6004148E1,4.042257E1,1.5044088E0,9.406098E0,7.2311807E0,8.772967E0,9.218553E0,3.1204016E1,1.5476526E0,7.858445E0,2.0449638E0,6.7280035E0,1.0216923E0,8.19686E0,1.247601E0,2.9956413E1,2.0664182E0,4.6615853E0,1.3702391E0,6.826621E0,2.7330702E1,2.6257117E0],"tree_param":{"num_deleted":"0","num_feature":"21","num_nodes":"31","size_leaf_vector":"1"}},{"base_weights":[3.1585865E-2,-6.837721E-1,3.2928404E-1,-5.2234393E-2,5.904554E-1,5.8040315E-1,-5.0598856E-2,1.3677208E-2,4.5222983E-2,3.601276E-1,9.76285E-1,3.4839906E-2,-3.8852897E-2,-1.1390458E-1,8.8321114E-1,1.536074E-3,5.120165E-2,-6.163885E-1,7.864106E-1,9.759369E-1,-2.3639507E-3,-5.2392926E-2,-2.55777E-3,-9.805086E-3,4.891374E-2,1.1162194E-4,5.3894915E-2],"categories":[],"categories_nodes":[],"categories_segments":[],"categories_sizes":[],"default_left":[0,0,0,0,0,0,0,0,0,0,0,0,0,0,0,0,0,0,0,0,0,0,0,0,0,0,0],"id":38,"left_children":[1,3,5,-1,7,9,-1,11,-1,13,15,-1,-1,17,19,-1,-1,21,23,25,-1,-1,-1,-1,-1,-1,-1],"loss_changes":[2.1010532E1,1.3956596E1,2.4028229E1,0E0,1.2628906E0,4.815693E0,0E0,2.430662E0,0E0,9.933725E0,8.9857674E-1,0E0,0E0,1.0296862E1,1.68262E0,0E0,0E0,3.477991E0,1.739224E0,1.7145844E0,0E0,0E0,0E0,0E0,0E0,0E0,0E0],"parents":[2147483647,0,0,1,1,2,2,4,4,5,5,7,7,9,9,10,10,13,13,14,14,17,17,18,18,19,19],"right_children":[2,4,6,-1,8,10,-1,12,-1,14,16,-1,-1,18,20,-1,-1,22,24,26,-1,-1,-1,-1,-1,-1,-1],"split_conditions":[7.5609756E-1,1.1747174E0,1.0434783E0,-5.2234393E-2,1.04166664E-1,8.019506E0,-5.0598856E-2,1.3636364E-1,4.5222983E-2,9.4736844E-1,1.0810811E-1,3.4839906E-2,-3.8852897E-2,8.6915815E-1,4.5227737E0,1.536074E-3,5.120165E-2,8.75E-1,7.7272725E-1,1.1E1,-2.3639507E-3,-5.2392926E-2,-2.55777E-3,-9.805086E-3,4.891374E-2,1.1162194E-4,5.3894915E-2],"split_indices":[3,16,3,0,5,19,0,4,0,3,5,0,0,16,18,0,0,3,3,0,0,0,0,0,0,0,0],"split_type":[0,0,0,0,0,0,0,0,0,0,0,0,0,0,0,0,0,0,0,0,0,0,0,0,0,0,0],"sum_hessian":[9.660191E1,2.8006483E1,6.859543E1,2.1965153E1,6.04133E0,5.825571E1,1.033972E1,2.4974499E0,3.5438802E0,3.8656334E1,1.9599375E1,1.4036368E0,1.0938131E0,2.0689344E1,1.796699E1,1.0211298E0,1.8578245E1,1.34808035E1,7.208542E0,1.6294373E1,1.6726182E0,7.1607785E0,6.3200245E0,1.1740893E0,6.0344524E0,1.6413925E0,1.4652979E1],"tree_param":{"num_deleted":"0","num_feature":"21","num_nodes":"27","size_leaf_vector":"1"}},{"base_weights":[3.124281E-2,-7.3577106E-1,3.17831E-1,-5.1733106E-2,5.384575E-1,5.469702E-1,-4.993085E-2,-7.8096846E-3,4.3036938E-2,2.667008E-1,8.588656E-1,-7.504437E-1,8.235011E-1,4.4031233E-1,1.009969E0,-9.385515E-1,2.9717406E-2,2.0689933E-1,9.497037E-1,-3.8063068E-2,4.4112936E-2,5.282083E-2,4.557596E-1,2.4826307E-4,-6.0327042E-2,-4.5894172E-2,3.902207E-2,5.000619E-2,4.1654096E-3,2.9833203E-2,4.049407E-3],"categories":[],"categories_nodes":[],"categories_segments":[],"categories_sizes":[],"default_left":[0,0,0,0,0,0,0,0,0,0,0,0,0,0,0,0,0,0,0,0,0,0,0,0,0,0,0,0,0,0,0],"id":39,"left_children":[1,3,5,-1,7,9,-1,-1,-1,11,13,15,17,19,21,23,-1,25,27,-1,-1,-1,29,-1,-1,-1,-1,-1,-1,-1,-1],"loss_changes":[2.0548035E1,1.0245712E1,2.1050861E1,0E0,1.3637515E0,4.8885098E0,0E0,0E0,0E0,1.8902763E1,1.2792301E0,3.579391E0,1.4641905E0,5.45263E0,1.4177322E-2,2.7536173E0,0E0,3.8802114E0,6.783762E-1,0E0,0E0,0E0,1.2317872E-1,0E0,0E0,0E0,0E0,0E0,0E0,0E0,0E0],"parents":[2147483647,0,0,1,1,2,2,4,4,5,5,9,9,10,10,11,11,12,12,13,13,14,14,15,15,17,17,18,18,22,22],"right_children":[2,4,6,-1,8,10,-1,-1,-1,12,14,16,18,20,22,24,-1,26,28,-1,-1,-1,30,-1,-1,-1,-1,-1,-1,-1,-1],"split_conditions":[7.5E-1,1.1747174E0,1.0434783E0,-5.1733106E-2,1.04166664E-1,1.3412718E-1,-4.993085E-2,-7.8096846E-3,4.3036938E-2,9.0625E-1,8.095238E-1,1.525182E0,9.4736844E-1,3.4011974E0,9.782609E-1,1E0,2.9717406E-2,6.9452775E-1,1.0748105E-1,-3.8063068E-2,4.4112936E-2,5.282083E-2,2.8E1,2.4826307E-4,-6.0327042E-2,-4.5894172E-2,3.902207E-2,5.000619E-2,4.1654096E-3,2.9833203E-2,4.049407E-3],"split_indices":[3,16,3,0,5,17,0,0,0,3,3,20,3,7,3,12,0,20,17,0,0,0,0,0,0,0,0,0,0,0,0],"split_type":[0,0,0,0,0,0,0,0,0,0,0,0,0,0,0,0,0,0,0,0,0,0,0,0,0,0,0,0,0,0,0],"sum_hessian":[9.141402E1,2.4439014E1,6.6975006E1,1.9947914E1,4.4911E0,5.754356E1,9.431444E0,1.5866195E0,2.90448E0,3.1285496E1,2.6258064E1,1.0944557E1,2.0340939E1,8.003241E0,1.8254824E1,9.866525E0,1.0780327E0,3.9043667E0,1.6436571E1,1.9578028E0,6.045438E0,1.600712E1,2.2477036E0,2.3996148E0,7.46691E0,1.115792E0,2.7885747E0,1.5386785E1,1.0497874E0,1.2032412E0,1.0444623E0],"tree_param":{"num_deleted":"0","num_feature":"21","num_nodes":"31","size_leaf_vector":"1"}},{"base_weights":[6.300487E-3,-7.7234644E-1,3.2362372E-1,-5.2223302E-2,6.6142726E-1,5.6378007E-1,-4.9643856E-2,3.6115001E-3,4.1421127E-2,2.646642E-1,9.111913E-1,-6.2491894E-1,7.747004E-1,8.707036E-3,4.7935158E-2,-9.7158253E-1,2.4466342E-1,-6.042543E-3,8.78389E-1,-5.6969505E-2,-2.5359436E-3,-5.5574384E-3,3.1178597E-2,5.6686247E-4,4.7334775E-2],"categories":[],"categories_nodes":[],"categories_segments":[],"categories_sizes":[],"default_left":[0,0,0,0,0,0,0,0,0,0,0,0,0,0,0,0,0,0,0,0,0,0,0,0,0],"id":40,"left_children":[1,3,5,-1,7,9,-1,-1,-1,11,13,15,17,-1,-1,19,21,-1,23,-1,-1,-1,-1,-1,-1],"loss_changes":[2.2520805E1,1.0988163E1,2.102914E1,0E0,4.1465044E-1,5.514971E0,0E0,0E0,0E0,1.4628505E1,7.1614456E-1,3.8291383E0,1.9875154E0,0E0,0E0,1.289566E0,6.34824E-1,0E0,1.0718508E0,0E0,0E0,0E0,0E0,0E0,0E0],"parents":[2147483647,0,0,1,1,2,2,4,4,5,5,9,9,10,10,11,11,12,12,15,15,16,16,18,18],"right_children":[2,4,6,-1,8,10,-1,-1,-1,12,14,16,18,-1,-1,20,22,-1,24,-1,-1,-1,-1,-1,-1],"split_conditions":[7.5609756E-1,3.5E1,1.0434783E0,-5.2223302E-2,6.25E-1,1.3412718E-1,-4.9643856E-2,3.6115001E-3,4.1421127E-2,9.0625E-1,7.659575E-1,7.499557E0,6.737977E-2,8.707036E-3,4.7935158E-2,2.9877256E1,8.636364E-1,-6.042543E-3,2.7441898E1,-5.6969505E-2,-2.5359436E-3,-5.5574384E-3,3.1178597E-2,5.6686247E-4,4.7334775E-2],"split_indices":[3,1,3,0,3,17,0,0,0,3,3,19,17,0,0,13,3,0,13,0,0,0,0,0,0],"split_type":[0,0,0,0,0,0,0,0,0,0,0,0,0,0,0,0,0,0,0,0,0,0,0,0,0],"sum_hessian":[8.913521E1,2.5392708E1,6.37425E1,2.1570343E1,3.822364E0,5.439205E1,9.350449E0,1.160474E0,2.6618903E0,3.0174274E1,2.4217775E1,1.0913746E1,1.926053E1,1.749107E0,2.2468668E1,7.719163E0,3.1945827E0,1.9814415E0,1.7279089E1,6.3286047E0,1.3905582E0,2.0119405E0,1.1826422E0,1.3469898E0,1.5932098E1],"tree_param":{"num_deleted":"0","num_feature":"21","num_nodes":"25","size_leaf_vector":"1"}},{"base_weights":[2.2271063E-2,-6.9043833E-1,3.0313134E-1,-5.1267214E-2,5.853718E-1,5.407089E-1,-4.9296405E-2,-6.937696E-3,4.3932002E-2,2.2249493E-1,8.423343E-1,-7.909516E-1,5.966285E-1,-5.17513E-3,8.8670284E-1,-5.4601457E-2,2.9313786E-2,-3.870064E-2,7.059454E-1,5.0793517E-2,4.8104692E-1,7.7748694E-3,4.915407E-2,-2.3766773E-2,3.661109E-2],"categories":[],"categories_nodes":[],"categories_segments":[],"categories_sizes":[],"default_left":[0,0,0,0,0,0,0,0,0,0,0,0,0,0,0,0,0,0,0,0,0,0,0,0,0],"id":41,"left_children":[1,3,5,-1,7,9,-1,-1,-1,11,13,15,17,-1,19,-1,-1,-1,21,-1,23,-1,-1,-1,-1],"loss_changes":[1.765732E1,1.1258533E1,1.989447E1,0E0,1.3585452E0,4.998253E0,0E0,0E0,0E0,1.0955764E1,1.2407017E0,3.9098573E0,3.6576715E0,0E0,8.8705444E-1,0E0,0E0,0E0,2.860569E0,0E0,2.327597E0,0E0,0E0,0E0,0E0],"parents":[2147483647,0,0,1,1,2,2,4,4,5,5,9,9,10,10,11,11,12,12,14,14,18,18,20,20],"right_children":[2,4,6,-1,8,10,-1,-1,-1,12,14,16,18,-1,20,-1,-1,-1,22,-1,24,-1,-1,-1,-1],"split_conditions":[7.5609756E-1,1.1747174E0,1.0434783E0,-5.1267214E-2,1.04166664E-1,6.424755E0,-4.9296405E-2,-6.937696E-3,4.3932002E-2,8.75E-1,2.5442188E1,6E0,3.4084684E-1,-5.17513E-3,1.632653E-1,-5.4601457E-2,2.9313786E-2,-3.870064E-2,9.4736844E-1,5.0793517E-2,1.256613E0,7.7748694E-3,4.915407E-2,-2.3766773E-2,3.661109E-2],"split_indices":[3,16,3,0,5,19,0,0,0,3,13,2,16,0,4,0,0,0,3,0,20,0,0,0,0],"split_type":[0,0,0,0,0,0,0,0,0,0,0,0,0,0,0,0,0,0,0,0,0,0,0,0,0],"sum_hessian":[8.616528E1,2.3944801E1,6.2220486E1,1.912161E1,4.82319E0,5.3027836E1,9.192651E0,1.5421783E0,3.2810118E0,2.6649908E1,2.6377926E1,6.885229E0,1.9764679E1,1.1222076E0,2.5255718E1,5.819994E0,1.0652353E0,1.0107838E0,1.8753895E1,1.8015139E1,7.24058E0,6.80295E0,1.1950946E1,1.3204271E0,5.920153E0],"tree_param":{"num_deleted":"0","num_feature":"21","num_nodes":"25","size_leaf_vector":"1"}},{"base_weights":[2.848536E-2,-7.115313E-1,3.0336434E-1,-5.089697E-2,5.970112E-1,5.122089E-1,-4.8539024E-2,-1.6555869E-3,4.178069E-2,-4.1037895E-2,5.646816E-1,3.40269E-1,9.594264E-1,-6.5382767E-1,7.032191E-1,5.3094685E-2,2.99217E-1,-5.0215907E-2,1.6366905E-2,1.0211098E-2,4.305975E-2,3.5460167E-2,-2.1679802E-2],"categories":[],"categories_nodes":[],"categories_segments":[],"categories_sizes":[],"default_left":[0,0,0,0,0,0,0,0,0,0,0,0,0,0,0,0,0,0,0,0,0,0,0],"id":42,"left_children":[1,3,5,-1,7,9,-1,-1,-1,-1,11,13,15,17,19,-1,21,-1,-1,-1,-1,-1,-1],"loss_changes":[1.7483952E1,9.946269E0,1.7154938E1,0E0,7.8684187E-1,4.2711496E0,0E0,0E0,0E0,0E0,4.36586E0,1.3203582E1,9.4386864E-1,3.755537E0,1.9017105E0,0E0,1.4785956E0,0E0,0E0,0E0,0E0,0E0,0E0],"parents":[2147483647,0,0,1,1,2,2,4,4,5,5,10,10,11,11,12,12,13,13,14,14,16,16],"right_children":[2,4,6,-1,8,10,-1,-1,-1,-1,12,14,16,18,20,-1,22,-1,-1,-1,-1,-1,-1],"split_conditions":[7.5E-1,1.1747174E0,1.0434783E0,-5.089697E-2,1.6E-1,3.416497E-1,-4.8539024E-2,-1.6555869E-3,4.178069E-2,-4.1037895E-2,9.4736844E-1,4.640469E0,2.6E1,2.3E1,1.2441577E0,5.3094685E-2,1.5E-1,-5.0215907E-2,1.6366905E-2,1.0211098E-2,4.305975E-2,3.5460167E-2,-2.1679802E-2],"split_indices":[3,16,3,0,4,16,0,0,0,0,3,18,1,1,20,0,5,0,0,0,0,0,0],"split_type":[0,0,0,0,0,0,0,0,0,0,0,0,0,0,0,0,0,0,0,0,0,0,0],"sum_hessian":[8.3890976E1,2.2291174E1,6.1599808E1,1.8241766E1,4.0494075E0,5.343869E1,8.161116E0,1.3487462E0,2.7006614E0,1.4694173E0,5.1969273E1,3.4320213E1,1.764906E1,8.964795E0,2.5355417E1,1.4751193E1,2.8978662E0,6.5878854E0,2.3769102E0,6.648284E0,1.8707134E1,1.8788984E0,1.018968E0],"tree_param":{"num_deleted":"0","num_feature":"21","num_nodes":"23","size_leaf_vector":"1"}},{"base_weights":[-2.5406318E-2,-6.215823E-1,2.4063744E-1,-5.1996656E-2,5.7276666E-1,4.7368583E-1,-4.85954E-2,-5.7913694E-3,7.670633E-1,2.068952E-1,8.597681E-1,4.4337804E-3,4.5012426E-2,-5.1440156E-1,8.455054E-1,-2.848002E-3,9.410975E-1,-8.360542E-1,3.101096E-1,2.8880396E-1,5.0672043E-2,5.232997E-2,1.7748699E-1,-5.3648908E-2,7.023035E-3,-1.7614676E-2,3.8181737E-2,-3.393408E-2,4.003062E-2,-2.1314302E-2,3.1036148E-2],"categories":[],"categories_nodes":[],"categories_segments":[],"categories_sizes":[],"default_left":[0,0,0,0,0,0,0,0,0,0,0,0,0,0,0,0,0,0,0,0,0,0,0,0,0,0,0,0,0,0,0],"id":43,"left_children":[1,3,5,-1,7,9,-1,-1,11,13,15,-1,-1,17,19,-1,21,23,25,27,-1,-1,29,-1,-1,-1,-1,-1,-1,-1,-1],"loss_changes":[1.3101656E1,1.3324892E1,1.6619675E1,0E0,1.059313E0,4.831978E0,0E0,0E0,4.4316602E-1,1.4290321E1,1.5118322E0,0E0,0E0,4.1702576E0,1.23423E0,0E0,1.2661238E0,2.6676803E0,1.7314329E0,3.1101131E0,0E0,0E0,1.1723237E0,0E0,0E0,0E0,0E0,0E0,0E0,0E0,0E0],"parents":[2147483647,0,0,1,1,2,2,4,4,5,5,8,8,9,9,10,10,13,13,14,14,16,16,17,17,18,18,19,19,22,22],"right_children":[2,4,6,-1,8,10,-1,-1,12,14,16,-1,-1,18,20,-1,22,24,26,28,-1,-1,30,-1,-1,-1,-1,-1,-1,-1,-1],"split_conditions":[7.659575E-1,3E1,1.0434783E0,-5.1996656E-2,6.2857145E-1,9.4736844E-1,-4.85954E-2,-5.7913694E-3,1.1747174E0,1.3412718E-1,1.1E1,4.4337804E-3,4.5012426E-2,6.621527E0,8.095238E-1,-2.848002E-3,2.6E1,2.9877256E1,8.636364E-1,3.4E1,5.0672043E-2,5.232997E-2,7.144746E0,-5.3648908E-2,7.023035E-3,-1.7614676E-2,3.8181737E-2,-3.393408E-2,4.003062E-2,-2.1314302E-2,3.1036148E-2],"split_indices":[3,1,3,0,3,3,0,0,16,17,0,0,0,19,3,0,1,13,3,0,0,0,19,0,0,0,0,0,0,0,0],"split_type":[0,0,0,0,0,0,0,0,0,0,0,0,0,0,0,0,0,0,0,0,0,0,0,0,0,0,0,0,0,0,0],"sum_hessian":[8.066049E1,2.447599E1,5.61845E1,1.8222418E1,6.253572E0,4.7637943E1,8.5465555E0,1.4650935E0,4.788479E0,2.9079388E1,1.8558558E1,1.0591968E0,3.729282E0,1.3746971E1,1.5332417E1,1.5367107E0,1.7021847E1,9.879031E0,3.8679404E0,4.183607E0,1.1148809E1,1.46299515E1,2.3918946E0,7.870655E0,2.0083761E0,1.6626873E0,2.205253E0,1.3346449E0,2.848962E0,1.0287625E0,1.3631321E0],"tree_param":{"num_deleted":"0","num_feature":"21","num_nodes":"31","size_leaf_vector":"1"}},{"base_weights":[-3.0584771E-2,-6.892538E-1,2.6611662E-1,-5.1226974E-2,5.716334E-1,4.8153508E-1,-4.7547005E-2,-1.9183055E-3,3.755864E-2,2.3008451E-1,8.4170514E-1,-5.4324603E-1,8.433734E-1,-2.760656E-3,9.261071E-1,-9.028292E-1,3.3190343E-1,3.0633965E-1,5.0349284E-2,5.176528E-2,2.0720884E-1,-5.074974E-3,-5.021062E-2,-1.5408312E-2,3.8218345E-2,-3.2785065E-2,4.0414352E-2,3.231245E-2,-2.1634238E-2],"categories":[],"categories_nodes":[],"categories_segments":[],"categories_sizes":[],"default_left":[0,0,0,0,0,0,0,0,0,0,0,0,0,0,0,0,0,0,0,0,0,0,0,0,0,0,0,0,0],"id":44,"left_children":[1,3,5,-1,7,9,-1,-1,-1,11,13,15,17,-1,19,21,23,25,-1,-1,27,-1,-1,-1,-1,-1,-1,-1,-1],"loss_changes":[1.5102071E1,1.07260475E1,1.44455595E1,0E0,6.5092456E-1,3.9716616E0,0E0,0E0,0E0,1.395616E1,1.4540691E0,4.452269E0,1.1205912E0,0E0,1.119606E0,6.7976E-1,1.501711E0,3.058047E0,0E0,0E0,1.2604539E0,0E0,0E0,0E0,0E0,0E0,0E0,0E0,0E0],"parents":[2147483647,0,0,1,1,2,2,4,4,5,5,9,9,10,10,11,11,12,12,14,14,15,15,16,16,17,17,20,20],"right_children":[2,4,6,-1,8,10,-1,-1,-1,12,14,16,18,-1,20,22,24,26,-1,-1,28,-1,-1,-1,-1,-1,-1,-1,-1],"split_conditions":[7.659575E-1,1.1747174E0,1.0434783E0,-5.1226974E-2,3.5E1,9.4736844E-1,-4.7547005E-2,-1.9183055E-3,3.755864E-2,1.3412718E-1,1.1E1,6.621527E0,8.095238E-1,-2.760656E-3,2.6E1,1.3513513E-1,8.636364E-1,3.4E1,5.0349284E-2,5.176528E-2,1.5E-1,-5.074974E-3,-5.021062E-2,-1.5408312E-2,3.8218345E-2,-3.2785065E-2,4.0414352E-2,3.231245E-2,-2.1634238E-2],"split_indices":[3,16,3,0,1,3,0,0,0,17,0,19,3,0,1,4,3,0,0,0,5,0,0,0,0,0,0,0,0],"split_type":[0,0,0,0,0,0,0,0,0,0,0,0,0,0,0,0,0,0,0,0,0,0,0,0,0,0,0,0,0],"sum_hessian":[7.533833E1,2.2986305E1,5.2352028E1,1.8305967E1,4.6803393E0,4.4992687E1,7.35934E0,1.2431035E0,3.4372358E0,2.746028E1,1.753241E1,1.219594E1,1.52643385E1,1.5376819E0,1.5994727E1,8.6217785E0,3.5741622E0,4.235212E0,1.1029127E1,1.3503464E1,2.4912634E0,1.1930552E0,7.428723E0,1.5570537E0,2.0171084E0,1.3470732E0,2.8881385E0,1.4716271E0,1.0196363E0],"tree_param":{"num_deleted":"0","num_feature":"21","num_nodes":"29","size_leaf_vector":"1"}},{"base_weights":[-2.4738563E-2,-4.637403E-1,2.964348E-1,-8.635481E-1,-1.3561344E-1,-4.9691287E-1,3.9366493E-1,-1.2449969E-1,-5.0719734E-2,-4.646188E-2,1.2735882E-1,1.0238272E-2,-4.430341E-2,7.265516E-2,7.671351E-1,-3.743578E-2,3.146497E-2,2.6037523E-1,-3.257595E-2,-4.1313864E-2,3.6647703E-2,8.531411E-1,4.7119343E-1,-3.6887863E-1,4.298442E-1,8.669519E-2,-4.3106273E-2,4.6424814E-2,8.552867E-3,-5.601015E-2,3.9073326E-2,-3.5525404E-2,1.1341933E-2,2.8302843E-2,-8.87667E-3,-3.0114183E-2,8.652063E-3,-3.0499581E-2,2.91733E-2],"categories":[],"categories_nodes":[],"categories_segments":[],"categories_sizes":[],"default_left":[0,0,0,0,0,0,0,0,0,0,0,0,0,0,0,0,0,0,0,0,0,0,0,0,0,0,0,0,0,0,0,0,0,0,0,0,0,0,0],"id":45,"left_children":[1,3,5,7,9,11,13,15,-1,-1,17,-1,-1,19,21,-1,-1,23,-1,25,-1,27,29,31,33,35,-1,-1,-1,37,-1,-1,-1,-1,-1,-1,-1,-1,-1],"loss_changes":[1.0880751E1,4.1573315E0,3.6369584E0,1.4902964E0,4.100751E0,1.6321439E0,4.7757864E0,2.1641166E0,0E0,0E0,1.7456673E0,0E0,0E0,1.7443314E0,6.9480896E-2,0E0,0E0,1.6203263E0,0E0,2.215144E0,0E0,5.154562E-1,1.0914373E0,8.62599E-1,1.0321474E0,1.2066553E0,0E0,0E0,0E0,1.5270795E0,0E0,0E0,0E0,0E0,0E0,0E0,0E0,0E0,0E0],"parents":[2147483647,0,0,1,1,2,2,3,3,4,4,5,5,6,6,7,7,10,10,13,13,14,14,17,17,19,19,21,21,22,22,23,23,24,24,25,25,29,29],"right_children":[2,4,6,8,10,12,14,16,-1,-1,18,-1,-1,20,22,-1,-1,24,-1,26,-1,28,30,32,34,36,-1,-1,-1,38,-1,-1,-1,-1,-1,-1,-1,-1,-1],"split_conditions":[2E1,1.3793103E-1,1.0526316E-1,5.222277E-1,3.4782776E-1,1.3636364E-1,8.389017E0,